tree
version=v4
num_class=1
num_tree_per_iteration=1
label_index=0
max_feature_idx=46
objective=binary sigmoid:1
feature_names=LIMIT_BAL AGE PAY_1 PAY_2 PAY_3 PAY_4 PAY_5 PAY_6 BILL_AMT1 BILL_AMT2 BILL_AMT3 BILL_AMT4 BILL_AMT5 BILL_AMT6 PAY_AMT1 PAY_AMT2 PAY_AMT3 PAY_AMT4 PAY_AMT5 PAY_AMT6 util_ratio_1 avg_util_ratio avg_pay_ratio months_delinquent max_delinquency delinquency_trend bill_trend SEX EDUCATION MARRIAGE segment nlp_emb_0 nlp_emb_1 nlp_emb_2 nlp_emb_3 nlp_emb_4 nlp_emb_5 nlp_emb_6 nlp_emb_7 nlp_emb_8 nlp_emb_9 nlp_emb_10 nlp_emb_11 nlp_emb_12 nlp_emb_13 nlp_emb_14 nlp_emb_15
feature_infos=[10000:1000000] [21:75] [-2:8] [-2:7] [-2:8] [-2:8] [-2:8] [-2:8] [-165580:964511] [-69777:983931] [-157264:855086] [-170000:891586] [-81334:927171] [-339603:961664] [0:873552] [0:1227082] [0:896040] [0:621000] [0:426529] [0:528666] [-0.619892:4.1406000000000001] [-0.23258999999999999:3.759125] [-13727.47792998478:4444.1333333333332] [0:6] [-2:8] [-7:7] [-428791:522478] -1:1:0 -1:1:0:2:3 -1:1:0:2 -1:4:3:2:1:0 [-0.63953328132629395:0.45397764444351196] [-0.43749195337295532:0.68143278360366821] [-0.28653523325920105:0.62454384565353394] [-0.47167202830314636:0.49472478032112122] [-0.32465356588363647:0.43364650011062622] [-0.57743072509765625:0.43897673487663269] [-0.31095719337463379:0.35098665952682495] [-0.32793468236923218:0.32449197769165039] [-0.35768696665763855:0.42643824219703674] [-0.36771821975708008:0.49765145778656006] [-0.39193138480186462:0.44650670886039734] [-0.43323913216590881:0.3715251088142395] [-0.38709595799446106:0.31977638602256775] [-0.3895534873008728:0.36426436901092529] [-0.28205320239067078:0.47591271996498108] [-0.3371010422706604:0.2829621434211731]
tree_sizes=3342 3429 3464 3451 3436 3477 3448 3450 3454 3445 3469 3477 3446 3447 3478 3448 3458 3459 3487 3456 3490 3470 3466 3466 3461 3464 3445 3475 3466 3473 3467 3471 3491 3452 3440 3470 3472 3486 3466 3449 3449 3498 3479 3459 3457 3474 3493 3468 3468 3448 3464 3444 3465 3482 3446 3488 3466 3462 3463 3440 3433 3466 3484 3457 3489 3480 3472 3435 3454 3437 3462 3468 3447 3475 3463 3494 3438 3437 3425 3455 3473 3461 3472 3460 3479 3443 3460 3477 3454 3473 3417 3429 3456 3462 3498 3460 3459 3451 3428 3445 3480 3455 3465 3421 3424 3430 3457 3459 3459 3440 3439 3471 3454 3459 3449 3480 3456 3436 3481 3461 3456 3447 3435 3467 3438 3449 3466 3455 3417 3499 3432 3432 3458 3435 3513 3449 3452 3425 3455 3444 3464 3447 3428 3440 3465 3445 3457 3418 3440 3458 3426 3424 3437 3449 3440 3470 3454 3426 3426 3482 3460 3453 3432 3469 3474 3429 3442 3462 3470 3483 3441 3425 3451 3448 3451 3443 3458 3448 3422 3449 3449 3427 3434 3423 3442 3410 3409 3449 3440 3440 3440 3474 3438 3410 3438 3441 3421 3457 3455 3433 3456 3409 3428 3447 3468 3427 3417 3442 3473 3444 3450 3441 3447 3418 3455 3460 3436 3437 3454 3449 3452 3472 3450 3466 3430 3473 3434 3450 3427 3413 3446 3438 3444 3444 3446 3435 3451 3452 3433 3443 3424 3441 3454 3451 3459 3497 3455 3454 3446 3450 3422 3457 3460 3460 3482 3421 3425 3459 3428 3424 3464 3420 3452 3435 3414 3420 3434 3462 3478 3445 3438 3430 3456 3448 3433 3468 3434 3399 3450 3425 3427 3397 3453 3435 3466 3493 3440 3418 3468 3443 3446 3451 3412 3448 3428 3469 3435 3433 3490 3427

Tree=0
num_leaves=31
num_cat=0
split_feature=2 23 23 16 22 20 3 21 25 8 1 0 0 9 0 0 44 22 10 0 21 8 22 21 0 24 22 8 32 21
split_gain=3466.62 777.637 206.558 81.6833 71.4948 53.5268 38.7474 48.3754 38.3425 36.7024 34.329 26.8762 26.4535 25.9485 21.0699 19.1318 26.6347 18.6657 18.2124 17.9734 16.8464 16.3885 16.3239 16.2322 17.4776 17.4709 17.9783 14.9706 13.7695 13.3294
threshold=1.5000000000000002 1.0000000180025095e-35 2.5000000000000004 1514.5000000000002 0.48982962194403318 0.8538583333333335 1.5000000000000002 0.00084536549707595011 1.5000000000000002 851.00000000000011 52.500000000000007 65000.000000000007 215000.00000000003 4159.0000000000009 105000.00000000001 165000.00000000003 0.14044477045536044 0.060925094643959406 489.00000000000006 65000.000000000007 0.66530360983102932 2401.5000000000005 1.6228196591971724 1.0000000180025095e-35 245000.00000000003 -1.4999999999999998 2.0931339827205142 8649.0000000000018 -0.027210101485252377 0.0090086944444444008
decision_type=2 2 2 2 2 2 2 2 2 2 2 2 2 2 2 2 2 2 2 2 2 2 2 2 2 2 2 2 2 2
left_child=1 3 6 9 8 13 7 10 -2 23 28 -4 17 -5 -15 18 -17 -9 -8 -11 21 -10 29 24 -1 -25 -27 -21 -3 -19
right_child=4 2 11 5 -6 -7 15 12 20 19 -12 -13 -14 14 -16 16 -18 22 -20 27 -22 -23 -24 25 -26 26 -28 -29 -30 -31
leaf_value=-1.2571644705912119 -1.0938731509883859 -1.1950378016018699 -1.176223266107939 -1.2854076910404018 -1.1938223096794465 -1.278793419396824 -1.1462268667200493 -1.2669232794229799 -1.1943460907381223 -1.2727540955005865 -1.1058031475449408 -1.2105428180646147 -1.2822553146905042 -1.2879557220923752 -1.307638246497042 -1.2671927387614084 -1.149039029162664 -1.1957401541712134 -1.2178269678676643 -1.2780505081771967 -1.1381102716412919 -1.1056324885222062 -1.2740686641112935 -1.2884121804852646 -1.1941734924083112 -1.244630547810603 -1.2870048402575727 -1.296271269483467 -1.2400156088061844 -1.2415372083394909
leaf_weight=28.1068225055933 150.88018216192722 22.588918700814247 122.08362168073654 237.44229809939861 29.831167444586754 397.2890739440918 10.001200646162031 145.53471285104752 5.5179038047790518 335.3850906342268 6.035207286477088 107.08182071149349 103.97799982130527 166.91659009456635 733.36390255391598 35.176636755466461 5.5179038047790518 17.933187365531921 79.319867193698883 206.2316547036171 130.53291188180447 92.080019742250443 35.004202261567116 57.937989950180054 18.105621859431267 97.942792534828186 33.624726310372353 248.65054020285606 68.973797559738159 139.32707107067108
leaf_count=163 875 131 708 1377 173 2304 58 844 32 1945 35 621 603 968 4253 204 32 104 460 1196 757 534 203 336 105 568 195 1442 400 808
internal_value=-1.25698 -1.27325 -1.23323 -1.28729 -1.11929 -1.29459 -1.24726 -1.25316 -1.11343 -1.27637 -1.22131 -1.19226 -1.2602 -1.30011 -1.30399 -1.22276 -1.25117 -1.25341 -1.20981 -1.28154 -1.12636 -1.11065 -1.24319 -1.25906 -1.23249 -1.26553 -1.25546 -1.28801 -1.22892 -1.23631
internal_weight=3868.4 3459.55 898.556 2561 408.842 1535.01 669.391 539.375 379.011 1025.99 97.5979 229.165 441.777 1137.72 900.28 130.016 40.6945 337.799 89.3211 790.267 228.131 97.5979 192.264 235.718 46.2124 189.506 131.568 454.882 91.5627 157.26
internal_count=22434 20063 5211 14852 2371 8902 3882 3128 2198 5950 566 1329 2562 6598 5221 754 236 1959 518 4583 1323 566 1115 1367 268 1099 763 2638 531 912
is_linear=0
shrinkage=1


Tree=1
num_leaves=31
num_cat=0
split_feature=24 23 25 8 23 0 21 22 25 14 25 13 9 21 22 21 8 26 1 25 7 0 0 26 24 17 8 26 22 34
split_gain=2593.36 449.017 361.763 183.37 80.4478 69.7403 64.0854 52.9906 44.6982 43.1176 42.1127 24.9432 22.9157 29.8586 22.4608 21.462 21.1565 20.7908 19.6667 18.9505 22.6272 18.1194 17.9155 17.6686 17.5517 21.9978 16.9192 16.5999 15.6119 15.2446
threshold=1.5000000000000002 2.5000000000000004 1.5000000000000002 796.50000000000011 5.5000000000000009 75000.000000000015 1.0000000180025095e-35 0.48982962194403318 1.5000000000000002 1.0000000180025095e-35 -1.0000000180025095e-35 7465.0000000000009 4566.5000000000009 0.51475801587301595 0.029354945681605401 0.86303700980392162 1916.5000000000002 504.00000000000006 55.500000000000007 -1.4999999999999998 1.0000000180025095e-35 185000.00000000003 215000.00000000003 53416.000000000007 -1.4999999999999998 880.50000000000011 -1.0000000180025095e-35 -3411.4999999999995 0.040221896254198912 0.25423423945903784
decision_type=2 2 2 2 2 2 2 2 2 2 2 2 2 2 2 2 2 2 2 2 2 2 2 2 2 2 2 2 2 2
left_child=3 2 9 6 8 -5 18 16 17 29 11 -6 -7 -14 -10 -12 -4 19 22 -3 -21 -11 -1 -15 -8 -26 -24 -16 -19 -2
right_child=1 4 7 5 10 12 24 -9 14 21 15 -13 13 23 27 -17 -18 28 -20 20 -22 -23 26 -25 25 -27 -28 -29 -30 -31
leaf_value=0.011476131787437626 0.046272994002699984 0.05308381891103367 0.016567762614650948 -0.017582568664267561 0.153817209248579 -0.026946443388410263 -0.03120591595140659 0.034632119669858609 0.065085085674851662 0.0087558654248049775 0.15909319960669061 0.080780606411680764 -0.046634084584295465 -0.037119317773377222 0.15408114823653563 0.11340807833068822 0.11129064807335637 0.073426669068762607 0.1232247376427851 0.067416069668778847 0.11655826416656839 -0.018063368536571332 -0.030313299387241401 -0.015651682460435214 0.0062870247550421629 -0.022134101268239923 0.060416974334078194 0.10613338380069895 0.022386762800185894 -0.011365721099307696
leaf_weight=74.992111340165138 90.555136233568192 46.083476483821869 6.1496009081602088 581.34776408970356 14.526530355215071 380.69071944057941 75.208319798111916 30.121699810028076 25.202719762921333 254.27800627052784 74.851005703210831 59.86515149474144 819.21228365600109 319.18023033440113 24.055047303438187 39.155379980802536 142.31241424381733 26.318460822105408 5.5424433946609488 46.360684186220169 47.345902055501938 83.711784094572067 5.8051774799823752 136.97932459414005 185.74473643302917 107.47742228209972 44.726380884647369 72.326478898525238 34.783231765031815 13.135786578059195
leaf_count=430 516 258 35 3410 78 2241 444 170 138 1466 399 333 4873 1887 130 209 772 147 30 259 257 489 33 807 1077 629 254 394 194 75
internal_value=-4.67876e-05 0.0636368 0.0350469 -0.0263666 0.0983484 -0.0324816 0.00102456 0.0950988 0.0831828 0.0107663 0.124307 0.0950425 -0.0377119 -0.0409253 0.107111 0.143403 0.107367 0.068701 0.0310518 0.0793354 0.0922455 0.0021134 0.026982 -0.0306728 -0.0096574 -0.00413043 0.0499937 0.1181 0.0443713 0.0389712
internal_weight=3868.05 1131.14 620.264 2736.91 510.874 2237.41 499.497 178.584 322.476 441.681 188.398 74.3917 1656.06 1275.37 121.584 114.006 148.462 200.892 131.066 139.79 93.7066 337.99 125.524 456.16 368.43 293.222 50.5316 96.3815 61.1017 103.691
internal_count=22434 6319 3523 16115 2796 13218 2897 977 1777 2546 1019 411 9808 7567 662 608 807 1115 747 774 516 1955 717 2694 2150 1706 287 524 341 591
is_linear=0
shrinkage=0.05


Tree=2
num_leaves=31
num_cat=0
split_feature=2 23 23 14 20 14 22 20 12 10 23 41 14 22 21 4 19 12 22 21 36 34 33 16 18 26 17 21 31 23
split_gain=2529.03 644.809 148.299 82.5888 70.1112 49.489 44.2392 28.0006 27.6013 24.8249 15.9672 15.3689 15.2555 21.5387 15.0756 17.3956 15.0102 14.7438 17.3125 14.7325 14.2716 13.9346 14.8432 13.0859 13.0255 12.876 12.6059 14.92 14.0283 12.1499
threshold=1.5000000000000002 1.0000000180025095e-35 2.5000000000000004 1900.5000000000002 0.77919230769230785 6.5000000000000009 0.25566933788362184 0.88711666666666678 1015.5000000000001 13201.000000000002 3.5000000000000004 -0.074778951704502092 4421.5000000000009 0.060925094643959406 1.0000000180025095e-35 -1.4999999999999998 9816.5000000000018 390.50000000000006 0.081702454226810509 0.61829750000000006 -0.14071239531040189 0.20225049555301669 -0.027452053502202031 6000.5000000000009 1000.5000000000001 1084.5000000000002 900.50000000000011 0.58979277777777794 -0.349920704960823 3.5000000000000004
decision_type=2 2 2 2 2 2 2 2 2 2 2 2 2 2 2 2 2 2 2 2 2 2 2 2 2 2 2 2 2 2
left_child=1 3 5 8 9 16 7 29 14 23 11 -4 13 -7 -1 -16 21 -15 -19 -14 -17 26 -23 -5 -13 -10 -3 28 -28 -2
right_child=6 2 10 4 -6 12 -8 -9 25 -11 -12 24 19 17 15 20 -18 18 -20 -21 -22 22 -24 -25 -26 -27 27 -29 -30 -31
leaf_value=0.019829354539988076 0.1109649304241781 0.043034828610043929 0.017513704890220996 -0.026809521209393835 -0.020155006011211417 -0.013602361045632956 0.060032409094130629 0.096785525671312128 -0.016643567463368477 -0.048391204510596329 0.064415539671173569 0.077187682920397654 -0.029167432479135003 0.050631477506381244 -0.023541566895891944 -0.027320807568720407 -0.02679924270477739 0.043245107282146006 0.00044276922839117482 0.0048688014550042425 0.0067081153962305941 0.030265686287458383 -0.020551885479901513 -0.047166666030899973 0.026805903643464614 -0.032525803872118321 0.058282390209297874 0.0533155785478793 -0.012941382574891483 0.13241850136707642
leaf_weight=49.492359563708305 111.36086834967136 133.0544838309288 46.628044947981834 280.56883502006531 519.87460252642632 103.66737799346447 41.451503962278366 149.84017996490002 287.8554759323597 671.79590885341167 146.06376375257969 31.739284187555313 83.289707273244858 25.165055945515633 134.91890788078308 38.543299034237862 13.173606857657431 29.684242352843285 115.72831147909164 51.421854510903358 153.60166893899441 30.487050384283066 27.180154740810394 109.850451156497 21.531877040863037 229.24436736106873 8.5160880982875806 18.941427364945412 36.736632406711578 162.00134038925171
leaf_count=279 570 746 253 1688 3102 601 222 769 1717 4093 787 172 488 144 804 229 75 170 668 299 902 173 155 668 117 1370 48 105 210 810
internal_value=-8.14937e-05 -0.0150393 0.0206285 -0.0283369 -0.0352005 0.00854862 0.109329 0.114157 -0.016186 -0.0425641 0.0538799 0.0384757 -0.0023964 0.00437186 -0.00588878 -0.00978053 0.0252447 0.0152956 0.00918036 -0.0161752 -0.000117913 0.0279342 0.00631395 -0.0325373 0.0568237 -0.0236846 0.0342551 0.0160574 0.000462186 0.123679
internal_weight=3863.41 3398.75 923.009 2475.75 1582.09 677.046 464.654 423.202 893.656 1062.22 245.963 99.8992 408.957 274.245 376.556 327.064 268.089 170.578 145.413 134.712 192.145 254.916 57.6672 390.419 53.2712 517.1 197.249 64.1941 45.2527 273.362
internal_count=22434 20063 5211 14852 9551 3882 2371 2149 5301 6449 1329 542 2370 1583 2214 1935 1512 982 838 787 1131 1437 328 2356 289 3087 1109 363 258 1380
is_linear=0
shrinkage=0.05


Tree=3
num_leaves=31
num_cat=0
split_feature=2 3 15 5 21 20 22 0 0 9 4 20 0 15 26 17 6 2 17 0 22 35 21 8 0 26 37 15 46 18
split_gain=2186.72 489.76 179.464 75.3503 66.9196 49.1208 35.4715 31.5668 30.8672 29.8754 27.6979 22.1035 22.0746 21.7283 19.4682 17.4546 15.7938 14.8628 16.7623 14.3376 13.69 13.3024 11.9368 11.8364 11.5268 11.0466 17.2474 13.749 14.154 13.5489
threshold=1.5000000000000002 1.5000000000000002 1500.5000000000002 1.0000000180025095e-35 1.0000000180025095e-35 0.79148437500000013 0.25566933788362184 225000.00000000003 55000.000000000007 4939.5000000000009 1.0000000180025095e-35 0.88711666666666678 105000.00000000001 2483.5000000000005 444.00000000000006 124.50000000000001 1.0000000180025095e-35 -1.4999999999999998 326.50000000000006 215000.00000000003 0.052064602324491158 -0.14961974322795865 -1.0000000180025095e-35 851.00000000000011 65000.000000000007 -1796.4999999999998 0.0050357542932033547 272.50000000000006 0.052551582455635078 458.00000000000006
decision_type=2 2 2 2 2 2 2 2 2 2 2 2 2 2 2 2 2 2 2 2 2 2 2 2 2 2 2 2 2 2
left_child=1 2 4 5 19 9 11 10 25 -4 14 -2 -11 -5 17 20 23 -6 21 -1 -12 -19 -21 -10 -16 -3 27 29 -29 -27
right_child=6 8 3 13 7 -7 -8 -9 16 12 15 -13 -14 -15 24 -17 -18 18 -20 22 -22 -23 -24 -25 -26 26 -28 28 -30 -31
leaf_value=0.014171686804889699 0.11126120269378 0.079899531345968333 -0.024442302476507846 0.053956186911005968 -0.026789070625839642 -0.02015545519305522 0.055333341001012018 -0.02485856863242324 0.068504453866891718 -0.027937306273280834 -0.0069745179384042054 0.087921196017935743 -0.04653012030297593 -0.00096217440195440259 -0.0074747260874017648 0.005429798665474936 0.054667804678351618 0.056345833529621664 -0.0041003122646593249 -0.0092102500653522268 0.065811736508582727 0.011484334623405295 0.056351117926122962 0.016121355260686056 -0.026471643806647783 0.15193631052900303 0.026655319582854622 0.029036887046007754 0.095388875295965611 0.063250521263864462
leaf_weight=79.333569273352623 288.25743998587132 51.914404094219208 306.06537327170372 23.020675644278526 43.870115920901299 560.63445875048637 42.689431086182594 248.93648344278336 11.896008700132368 204.55289430916309 8.5737134069204313 156.51491886377335 727.07603757083416 82.758850455284119 157.13945525884628 79.857553571462631 48.03542947769165 21.520857229828835 187.14284564554691 8.0913283675909025 26.206185862421989 71.171426251530647 48.910348460078239 115.35330198705196 162.35105901956558 8.4322710037231463 40.638612747192383 23.040817528963089 12.342855304479597 8.8020926266908628
leaf_count=444 1380 271 1844 128 265 3376 222 1495 65 1243 48 769 4550 468 940 456 253 124 1111 46 144 411 264 634 987 44 216 124 66 46
internal_value=-0.000109344 -0.0144363 -0.0206197 -0.0300213 -0.00495903 -0.0324337 0.0988693 -0.0094109 0.044362 -0.0379953 -0.00433658 0.103048 -0.0424478 0.0109896 -0.00837209 0.0183054 0.0302398 0.000269947 0.00451202 0.0279159 0.0478689 0.0219001 0.0470448 0.0210184 -0.0171281 0.0614136 0.0511228 0.0700199 0.0521824 0.106642
internal_weight=3855.13 3367.67 3047.21 1904.11 1143.1 1798.33 487.462 1006.77 320.456 1237.69 757.833 444.772 931.629 105.78 643.196 114.637 175.285 323.705 279.835 136.335 34.7799 92.6923 57.0017 127.249 319.491 145.171 93.2566 52.618 35.3837 17.2344
internal_count=22434 20063 18344 11609 6735 11013 2371 5981 1719 7637 4486 2149 5793 596 3838 648 952 1911 1646 754 192 535 310 699 1927 767 496 280 190 90
is_linear=0
shrinkage=0.05


Tree=4
num_leaves=31
num_cat=0
split_feature=2 23 23 15 20 4 19 9 16 21 26 15 20 19 25 15 13 26 41 26 36 12 10 1 21 1 26 24 9 36
split_gain=1907.05 545.907 112.625 84.1209 44.4401 29.3454 28.5405 26.5556 23.1737 29.5494 23.0018 21.9996 21.8992 19.6266 16.991 16.0794 16.2694 14.0527 14.0077 13.9168 13.3794 13.2107 12.8083 17.733 12.3254 12.3042 12.033 11.903 11.6669 11.9501
threshold=1.5000000000000002 1.0000000180025095e-35 2.5000000000000004 1639.5000000000002 0.8538583333333335 -1.0000000180025095e-35 9999.0000000000018 4939.5000000000009 801.00000000000011 0.58327833333333345 444.00000000000006 2769.5000000000005 0.94655500000000015 500.50000000000006 1.5000000000000002 7648.5000000000009 139286.00000000003 575.50000000000011 -0.23946799337863919 -4096.4999999999991 -0.16397084295749662 417.00000000000006 39584.500000000007 33.500000000000007 0.63062818181818192 37.500000000000007 1084.5000000000002 1.5000000000000002 17358.000000000004 -0.34084396064281458
decision_type=2 2 2 2 2 2 2 2 2 2 2 2 2 2 2 2 2 2 2 2 2 2 2 2 2 2 2 2 2 2
left_child=1 3 6 10 7 26 8 -5 11 -10 13 20 21 -1 -7 16 17 19 -16 -4 25 -12 -14 -24 -20 27 -2 -3 -11 -30
right_child=5 2 15 4 -6 14 -8 -9 9 28 12 -13 22 -15 18 -17 -18 -19 24 -21 -22 -23 23 -25 -26 -27 -28 -29 29 -31
leaf_value=0.0064827039956646976 0.015017837617663852 -0.018944125499052361 0.037486602320009187 -0.024529006550521062 -0.020002436810304055 0.10456231431113379 -0.031075205220330762 -0.042883377707303931 -0.011023561796034958 0.062865106127942064 -0.015167265014872809 -0.0069507475966144802 -0.0056199382189713234 -0.015682248056011549 0.10788957890980971 0.00058965951435691012 0.12164223732547251 0.029134864978523252 0.093724169557296788 0.067577864529235671 0.034362300515576316 -0.034184003861960903 0.10198784894373901 -0.017326700648366469 0.070135342001124187 0.034546561679164263 0.08154479797732464 0.043305157149055272 0.092236271602450445 0.011170542688277274
leaf_weight=191.86617740988731 17.404558420181278 38.020156994462013 63.16861879825592 255.49650384485722 445.05179902911186 194.43015453219414 44.152843847870827 861.74728105962276 196.78008356690407 14.026161596179007 157.80511909723282 60.17863292992115 47.799413338303566 208.30307285487652 55.56604827940464 17.692718759179115 7.6672130525112143 71.311767980456352 94.466918617486954 98.087900429964066 174.7751590013504 216.78314551711082 7.2649636715650541 5.4504504948854446 133.82669097185135 29.905283480882645 11.152401506900786 9.6230836212635023 4.7433319240808478 109.32793824374676
leaf_count=1122 89 215 327 1569 2714 890 260 5516 1139 78 964 349 290 1262 262 93 40 371 443 498 973 1338 44 33 633 165 54 53 26 624
internal_value=-0.000131013 -0.0138564 0.0184505 -0.0265155 -0.0333636 0.0902357 0.0078004 -0.038686 0.0104934 0.00114289 -0.0137069 0.0202142 -0.0216641 -0.00505498 0.0931755 0.0465916 0.0499796 0.047617 0.085376 0.0557903 0.026693 -0.0261727 0.00624425 0.0508438 0.0798963 0.00940824 0.0409987 -0.00637088 0.0198327 0.0145414
internal_weight=3843.88 3337.03 939.461 2397.57 1562.3 506.847 681.533 1117.24 637.38 324.878 835.272 312.502 435.103 400.169 478.29 257.928 240.236 232.568 283.86 161.257 252.324 374.588 60.5148 12.7154 228.294 77.5485 28.557 47.6432 128.097 114.071
internal_count=22434 20063 5211 14852 9799 2371 3882 7085 3622 1867 5053 1755 2669 2384 2228 1329 1236 1196 1338 825 1406 2302 367 77 1076 433 143 268 728 650
is_linear=0
shrinkage=0.05


Tree=5
num_leaves=31
num_cat=1
split_feature=2 24 3 15 20 17 22 10 0 8 0 15 45 0 10 20 36 24 45 39 26 8 19 0 32 20 29 14 14 20
split_gain=1674.48 499.447 95.8479 79.5195 42.5746 31.8528 27.0222 24.8171 23.4554 21.7343 26.4357 16.4281 20.4993 15.7597 15.2365 15.0638 14.2735 14.0315 12.8599 12.3083 11.6462 11.1298 11.1232 10.7184 10.2396 10.0637 10.061 13.3262 9.77297 9.52123
threshold=1.5000000000000002 1.0000000180025095e-35 1.5000000000000002 1639.5000000000002 0.8538583333333335 295.50000000000006 0.48982962194403318 10855.500000000002 55000.000000000007 776.50000000000011 65000.000000000007 1.0000000180025095e-35 -0.016411074902862307 215000.00000000003 34719.000000000007 0.88711666666666678 -0.34839229285717005 2.5000000000000004 0.21097888797521594 -0.30033259093761439 2431.5000000000005 9935.0000000000018 500.50000000000006 95000.000000000015 -0.084940649569034563 0.0055394444444444007 0 1142.5000000000002 7131.0000000000009 0.97502009803921585
decision_type=2 2 2 2 2 2 2 2 2 2 2 2 2 2 2 2 2 2 2 2 2 2 2 2 2 2 1 2 2 2
left_child=1 3 5 9 7 11 15 28 -4 22 14 12 24 -7 26 25 -10 -13 20 -14 -18 -12 -1 -9 -3 -2 27 -11 -5 -23
right_child=6 2 8 4 -6 13 -8 23 16 10 21 17 19 -15 -16 -17 18 -19 -20 -21 -22 29 -24 -25 -26 -27 -28 -29 -30 -31
leaf_value=0.0083346680921839913 0.030082343441499428 -0.0048079388318368228 0.05343963076251336 -0.021732510125445283 -0.019233754249268924 0.0012869947181298926 0.040309532999902482 -0.029828734096079584 0.10130138194417829 0.044139183620261313 -0.01893016135288483 -0.00092151952802995731 0.057517920100511433 -0.024420675443544135 0.036303277131291153 0.074026502676529118 0.031897909589928976 0.068899016006054178 0.076112317667279938 0.0018400601129762572 0.0047672003688935087 -0.039764177561113445 -0.015842096687974084 -0.045300107651990058 0.052132554343179455 0.09370434047593286 -0.017471806824652159 -0.0052730507458932287 -0.043554247026509188 0.012292890776591561
leaf_weight=146.23731631040573 6.3422420769929877 8.841946601867674 152.33351410925388 259.57197079062462 439.83222442865372 265.02307108044624 34.669424951076508 136.07369020581245 6.2036848515272132 16.753546372056007 203.39386041462421 105.65381705760956 11.688914179801939 76.918429926037788 20.03936094045639 170.99221055209637 94.633211150765419 7.7216641753911963 11.129991233348845 65.810978502035141 67.961833491921425 147.34645953774452 70.514158129692078 631.38506412506104 73.76513360440731 311.22893837094307 141.32284796237946 73.544421777129173 63.948756352066994 9.3404229581356031
leaf_count=844 30 47 767 1634 2714 1514 173 865 32 101 1261 603 63 463 120 785 497 41 58 363 365 937 425 4166 398 1383 859 448 420 58
internal_value=-0.000148077 -0.0132982 0.0173608 -0.0256133 -0.0323663 0.00567707 0.0829645 -0.0376608 0.0390017 -0.0131357 -0.0179562 0.0183965 0.0287088 -0.00449585 -0.00552327 0.0859914 0.0267782 0.00383375 0.024117 0.0102377 0.0205578 -0.0266456 0.00046942 -0.042557 0.0460379 0.0924337 -0.00914202 0.00389471 -0.0260459 -0.036661
internal_weight=3830.22 3306.99 947.686 2359.3 1530.81 615.424 523.233 1090.98 332.262 828.492 611.741 273.482 160.107 341.942 251.66 488.563 179.929 113.375 173.725 77.4999 162.595 360.081 216.751 767.459 82.6071 317.571 231.621 90.298 323.521 156.687
internal_count=22434 20063 5211 14852 9799 3492 2371 7085 1719 5053 3784 1515 871 1977 1528 2198 952 644 920 426 862 2256 1269 5031 445 1413 1408 549 2054 995
cat_boundaries=0 1
cat_threshold=1
is_linear=0
shrinkage=0.05


Tree=6
num_leaves=31
num_cat=0
split_feature=2 2 23 15 23 20 9 14 45 22 26 14 33 20 20 13 1 19 43 19 14 20 35 33 17 32 1 10 15 16
split_gain=1482.63 307.708 163.971 75.1169 63.7432 43.1251 25.6217 24.7585 24.1385 23.2104 21.0734 20.3331 17.965 17.3293 16.7055 23.3761 23.0696 17.7457 14.9383 14.763 14.7411 14.4715 13.7804 12.4925 12.3029 12.0681 11.9106 11.5881 10.388 10.2963
threshold=1.0000000180025095e-35 1.5000000000000002 1.0000000180025095e-35 1600.5000000000002 3.5000000000000004 0.8538583333333335 4939.5000000000009 3000.5000000000005 -0.08999158069491385 0.25566933788362184 444.00000000000006 1548.5000000000002 -0.25999733805656428 0.94655500000000015 0.27723000000000003 1475.0000000000002 54.500000000000007 679.50000000000011 -0.2824233323335647 9999.0000000000018 1513.5000000000002 0.88711666666666678 -0.32465355098247523 -0.098930295556783662 2196.5000000000005 0.11130147054791452 33.500000000000007 40933.500000000007 8829.0000000000018 149.50000000000003
decision_type=2 2 2 2 2 2 2 2 2 2 2 2 2 2 2 2 2 2 2 2 2 2 2 2 2 2 2 2 2 2
left_child=2 4 3 10 7 6 -5 14 23 21 11 24 -10 -12 15 16 18 -16 -2 20 22 -3 -14 -4 -1 -19 -11 -15 -6 -20
right_child=1 9 8 5 28 -7 -8 -9 12 26 13 -13 19 27 17 -17 -18 25 29 -21 -22 -23 -24 -25 -26 -27 -28 -29 -30 -31
leaf_value=0.0059231735470524575 0.0581301473659811 0.086230560913130277 0.01262983912105075 -0.022683852760796097 0.056634339322755127 -0.018098061048387567 -0.040949957357115541 -0.021776576068929143 0.082929802136726058 0.018462295826083688 -0.024370827501837743 -0.025064099639386245 0.085718028444194405 -0.0055802816321078351 0.062707253975661723 -0.016318499573049438 0.097139248455619734 0.032239929992875359 0.017078620918177329 -0.03296224943842832 -0.00099298644834860061 0.068233108730030953 0.016014640185008193 0.070001800987601781 -0.024535492712663462 -0.013849101131015909 0.069351577286917751 0.051869970266416099 -0.0033402371669245161 -0.01413837419072129
leaf_weight=264.14114272594452 17.958651915192604 319.02863141894341 16.222980141639709 250.21588264405727 122.29197315871716 438.80124792456627 824.86084726452827 46.037185192108154 7.2596328258514395 24.027677044272423 358.44472444057465 89.241563037037849 7.561458855867385 47.864178940653801 35.361031830310822 62.551044791936874 9.0250652581453306 50.508671671152115 114.03840261697769 25.853432044386864 241.97987957298756 171.86543160676956 113.91666340827942 22.85635432600975 37.911778420209885 19.759586721658707 22.04913105070591 10.748561352491377 7.6730383187532416 34.376988351345062
leaf_count=1559 95 1380 85 1584 594 2738 5562 271 37 116 2265 556 41 292 179 355 46 263 620 153 1390 769 624 119 234 105 106 62 39 195
internal_value=-0.000161202 0.050202 -0.0194555 -0.0247361 0.022771 -0.0313072 -0.0366987 0.0126562 0.00869261 0.0767447 -0.0124297 -0.0040951 0.00499799 -0.0202494 0.01727 0.00992423 0.0192829 0.0338177 0.0150596 0.00354477 0.00614158 0.0799295 0.0203534 0.046185 0.00210019 0.0192796 0.0428143 0.0049551 0.0530935 0.00984793
internal_weight=3814.43 1056.55 2757.88 2322.23 519.582 1513.88 1075.08 389.617 435.65 536.971 808.352 391.294 396.571 417.057 343.579 237.95 175.399 105.629 166.374 389.311 363.458 490.894 121.478 39.0793 302.053 70.2683 46.0768 58.6127 129.965 148.415
internal_count=22434 5133 17301 14852 2762 9884 7146 2129 2449 2371 4968 2349 2245 2619 1858 1311 956 547 910 2208 2055 2149 665 204 1793 368 222 354 633 815
is_linear=0
shrinkage=0.05


Tree=7
num_leaves=31
num_cat=0
split_feature=24 2 8 23 0 21 20 21 14 8 25 24 17 0 8 1 0 20 16 0 0 8 15 10 1 37 17 11 22 1
split_gain=1330.21 347.65 123.554 67.6033 58.2479 35.5815 32.3226 28.0901 24.8529 20.9715 16.8794 14.1984 15.3033 13.8742 14.5067 13.1246 13.0202 12.9235 12.6876 12.616 12.2762 11.8299 10.9533 11.4613 11.5672 10.8849 10.2368 10.0797 10.364 12.2357
threshold=1.5000000000000002 1.5000000000000002 796.50000000000011 2.5000000000000004 75000.000000000015 1.0000000180025095e-35 0.95471333333333341 0.014635365853658501 6.5000000000000009 595.50000000000011 1.5000000000000002 -1.4999999999999998 880.50000000000011 185000.00000000003 17334.000000000004 55.500000000000007 215000.00000000003 0.0041683333333333008 2389.5000000000005 75000.000000000015 165000.00000000003 -1.0000000180025095e-35 1639.5000000000002 34719.000000000007 35.500000000000007 -0.09479098021984099 20000.500000000004 33356.000000000007 0.045841366505203311 42.500000000000007
decision_type=2 2 2 2 2 2 2 2 2 2 2 2 2 2 2 2 2 2 2 2 2 2 2 2 2 2 2 2 2 2
left_child=2 3 5 8 22 15 7 -6 20 -3 -11 -7 17 14 18 16 -1 -13 -10 -5 25 -18 23 -4 -25 -2 -8 -16 -29 -30
right_child=1 9 4 19 6 11 26 -9 13 10 -12 12 -14 -15 27 -17 21 -19 -20 -21 -22 -23 -24 24 -26 -27 -28 28 29 -31
leaf_value=0.005938949891212424 0.010767219733494914 0.016317688697887613 -0.0086703281546317845 0.047570966599904944 -0.017854839302578359 -0.027546072685679063 -0.015188259430990315 -0.038117191502214286 0.027303041158431931 0.084224017564841283 0.065957023820686009 0.00053201241081874816 -0.018149132983338024 -0.017945719842109856 -0.019726591950230701 0.092414196170239271 -0.030097418249333381 0.037668698847211593 -0.019180129580178965 0.025638310732753286 0.0029688918855129043 0.045527356386447566 -0.019701949806126745 0.057843007354350162 -0.016568936486768032 0.048141569227714232 0.044465665797427431 -0.010194736366091216 0.012876140914974294 0.08724287210636604
leaf_weight=79.064488992094994 28.705431550741196 16.787010714411736 239.28619821369648 160.37992815673351 203.39312137663364 70.400552719831467 183.70125278830528 1075.5244564414024 89.985640630125999 207.26638522744179 324.38567772507668 158.56582291424274 101.09149380028248 81.427186489105225 62.227652683854103 6.3667527437210074 5.7768336981534949 27.487904772162437 17.541756585240364 110.90669293701649 40.583981305360794 49.328715667128563 282.12806245684624 13.488902345299723 8.522110313177107 60.625674620270729 7.4846098124980918 43.51343460381031 34.340420693159103 6.5930427312850943
leaf_count=430 150 79 1477 770 1298 444 1161 7302 500 876 1416 917 629 491 355 30 33 160 100 558 222 254 1804 78 51 312 47 253 199 38
internal_value=-0.00017134 0.0411997 -0.0213422 0.0187648 -0.0268578 0.000955037 -0.0320282 -0.0348948 0.00720353 0.0713411 0.0730785 -0.00742335 -0.00248979 1.60284e-05 0.00576962 0.0222709 0.0189424 0.00601865 0.0197199 0.0386045 0.0257721 0.0375994 -0.0128704 -0.00549433 0.0290326 0.0361318 -0.0128529 -0.00445735 0.00679433 0.0248542
internal_weight=3796.88 1285.27 2511.61 736.831 2013.53 498.083 1470.1 1278.92 465.544 548.439 531.652 357.546 287.145 335.629 254.202 140.537 134.17 186.054 107.527 271.287 129.915 55.1055 543.425 261.297 22.011 89.3311 191.186 146.675 84.4469 40.9335
internal_count=22434 6319 16115 3948 13218 2897 9808 8600 2620 2371 2292 2150 1706 1936 1445 747 717 1077 600 1328 684 287 3410 1606 129 462 1208 845 490 237
is_linear=0
shrinkage=0.05


Tree=8
num_leaves=31
num_cat=0
split_feature=2 2 23 14 20 23 10 8 14 45 4 0 0 36 16 17 20 16 14 17 20 41 3 8 33 20 19 32 20 22
split_gain=1192.58 233.356 139.183 63.8029 58.574 50.4601 22.7693 22.1381 20.9195 19.6274 19.6197 16.6354 15.2932 13.1959 12.6556 12.386 12.3712 12.0893 11.986 11.2225 11.7772 11.1676 11.3304 11.0842 10.4627 10.4531 15.7213 10.2503 9.72694 9.39693
threshold=1.0000000180025095e-35 1.5000000000000002 1.0000000180025095e-35 1900.5000000000002 0.77919230769230785 3.5000000000000004 13201.000000000002 1052.0000000000002 3000.5000000000005 -0.08999158069491385 -1.0000000180025095e-35 25000.000000000004 185000.00000000003 -0.1331217214465141 6000.5000000000009 2100.5000000000005 0.66673000000000016 389.50000000000006 1599.5000000000002 1261.5000000000002 0.0074604347826086508 -0.23946799337863919 2.5000000000000004 7242.0000000000009 -0.098930295556783662 0.83831269230769234 800.50000000000011 -0.0014910139143466947 0.99218666666666677 1.0128840277379798
decision_type=2 2 2 2 2 2 2 2 2 2 2 2 2 2 2 2 2 2 2 2 2 2 2 2 2 2 2 2 2 2
left_child=2 5 3 7 6 8 14 -1 11 24 19 17 13 23 -5 29 -12 -2 -15 20 -3 -18 -23 -11 -4 26 27 -13 -6 -9
right_child=1 10 9 4 28 -7 -8 15 -10 12 16 25 -14 18 -16 -17 21 -19 -20 -21 -22 22 -24 -25 -26 -27 -28 -29 -30 -31
leaf_value=-0.0001926083889780262 0.08695593561133691 0.0069277837460093965 0.010332980389413588 -0.021041569608109795 -0.02025919135797654 0.046627445628716818 -0.043057975373364039 -0.011154511294339427 -0.020775582301084266 0.086459072628361333 0.077632223731792196 0.032817668333510477 -0.013106928289486756 0.020896449579750551 -0.042348359596955432 -0.03278742851482757 0.082592705588097795 0.026512303602546555 -0.0015380392773025676 -0.028808006188832249 0.076957357165083007 0.061399526208336067 0.027108753140678562 0.022342612120285613 0.06206608864993917 0.03315966744384502 -0.0099119598742585004 0.0075424999734077652 -0.004981639343005646 -0.031056718795873951
leaf_weight=264.64737790822983 12.556946009397505 11.37734073400498 16.535092353820801 254.13579541444778 332.40032736957073 134.83543084561825 574.89826673269272 398.86911392211914 45.297718346118927 8.9374647140502912 227.78657652437687 60.823148086667061 95.415176779031754 89.633833795785904 96.026631161570549 109.56590405106544 54.700182244181633 24.245703354477882 177.30405287444592 6.8112937659025183 12.711402595043181 217.52015297114849 27.089659288525581 27.423999890685081 23.900255262851715 47.599933192133904 85.60490095615387 117.81098307669163 151.7493751347065 69.668688267469406
leaf_count=1573 65 54 85 1688 2143 633 4093 2558 271 44 954 322 566 482 668 721 232 119 1014 32 57 926 116 139 119 242 474 636 959 449
internal_value=-0.000179309 0.0440272 -0.0180315 -0.0230529 -0.0295613 0.0202264 -0.0369359 -0.0121699 0.01119 0.00771816 0.0665815 0.0153431 0.00435193 0.00984432 -0.0268846 -0.017653 0.0688515 0.0471355 0.00599513 0.0278587 0.0438817 0.0621691 0.0576019 0.0381021 0.040911 0.0115911 0.00770572 0.0161484 -0.0154707 -0.0141138
internal_weight=3777.88 1086.77 2691.11 2251.96 1409.21 528.775 925.061 842.751 393.939 439.15 557.997 348.642 398.715 303.299 350.162 578.104 527.097 36.8026 266.938 30.9 24.0887 299.31 244.61 36.3615 40.4353 311.839 264.239 178.634 484.15 468.538
internal_count=22434 5133 17301 14852 9551 2762 6449 5301 2129 2449 2371 1858 2245 1679 2356 3728 2228 184 1496 143 111 1274 1042 183 204 1674 1432 958 3102 3007
is_linear=0
shrinkage=0.05


Tree=9
num_leaves=31
num_cat=0
split_feature=24 2 15 23 21 20 9 0 44 0 22 24 26 26 1 25 8 17 15 16 45 0 15 0 21 20 41 8 1 19
split_gain=1080.48 268.007 110.865 52.8867 49.4113 43.9036 28.6697 19.5776 19.0417 19.2149 18.2424 18.0591 15.1018 19.1937 13.4124 13.3815 12.963 14.2931 16.1188 12.6097 13.2456 12.2297 11.1592 10.8741 10.7375 10.4004 15.2465 24.9111 9.84227 9.71134
threshold=1.5000000000000002 1.5000000000000002 1491.5000000000002 2.5000000000000004 1.0000000180025095e-35 0.8538583333333335 4566.5000000000009 105000.00000000001 0.053390273824334152 185000.00000000003 0.25566933788362184 -1.4999999999999998 444.00000000000006 -11673.999999999998 55.500000000000007 1.5000000000000002 17874.000000000004 1261.5000000000002 2100.5000000000005 913.50000000000011 0.030498508363962177 65000.000000000007 11944.500000000002 215000.00000000003 0.024464723320158054 0.15830909090909093 -0.21271750330924985 9407.5000000000018 33.500000000000007 1200.5000000000002
decision_type=2 2 2 2 2 2 2 2 2 2 2 2 2 2 2 2 2 2 2 2 2 2 2 2 2 2 2 2 2 2
left_child=2 3 4 8 14 6 -4 -8 9 16 15 -6 13 -13 23 -3 17 18 19 20 -2 24 25 -1 -14 26 -5 -28 -12 -18
right_child=1 10 5 22 11 -7 7 -9 -10 -11 28 12 21 -15 -16 -17 29 -19 -20 -21 -22 -23 -24 -25 -26 -27 27 -29 -30 -31
leaf_value=0.0060379648341214896 0.038993886613421118 0.074810870892706174 -0.018958184512989501 -0.035152085244103876 -0.031239291286610921 -0.0146518951416722 -0.02419888255530421 -0.041972732210089368 0.033668919015341379 -0.016091376328556017 0.011381226526007975 -0.03212687532994677 0.058536358527736421 0.0041556670314917155 0.093065553567874215 0.058442334729694005 -0.01566685055429342 -0.0047947353622527856 -0.011410114100921043 0.018562399260650585 0.097536606643449986 -0.023895721078166881 -0.020225047387042734 0.03463650389974296 -0.0071113787412954476 0.040559851250495042 0.054808726400895569 -0.033769433984455428 0.056371333994771983 0.0091422220157658714
leaf_weight=79.271047949790955 30.559076651930809 210.80354192852974 270.15872827172279 11.50762604176998 94.563741013407707 451.32854613661766 204.39916552603245 640.14734655618668 56.598315522074699 101.93950717151165 25.181468889117241 41.698312371969223 6.575561821460723 289.62506948411465 6.2269884049892417 306.26145854592323 65.089475154876709 41.76026850938797 19.205119729042053 38.871449485421181 14.129296585917471 185.62574450671673 9.1848798096179944 57.240053504705429 118.11489614844322 218.82813616096973 28.606678172945976 10.985534101724623 23.501667588949203 100.12072615325451
leaf_count=427 161 864 1764 57 610 2901 1396 4685 295 610 116 267 40 1730 28 1285 364 230 105 211 72 1236 46 293 738 1033 138 54 106 572
internal_value=-0.000184703 0.036398 -0.0198324 0.0167451 -0.00562053 -0.0278088 -0.0331358 -0.0376711 0.00647648 0.00273798 0.0623607 -0.0108406 -0.00783425 -0.000410629 0.021303 0.0651157 0.00893506 0.0198715 0.029895 0.0393884 0.0575036 -0.0157604 0.0339729 0.0180295 -0.00364944 0.0358171 0.015507 0.0302312 0.0331001 -0.00063205
internal_weight=3758.11 1313.13 2444.98 747.386 878.941 1566.03 1114.71 844.547 468.273 411.675 565.748 736.203 641.64 331.323 142.738 517.065 309.735 144.525 102.765 83.5598 44.6884 310.316 279.113 136.511 124.69 269.928 51.0998 39.5922 48.6831 165.21
internal_count=22434 6319 16115 3948 5369 10746 7845 6081 2620 2325 2371 4621 4011 1997 748 2149 1715 779 549 444 233 2014 1328 720 778 1282 249 192 222 936
is_linear=0
shrinkage=0.05


Tree=10
num_leaves=31
num_cat=0
split_feature=24 8 3 25 7 20 10 19 25 40 17 1 20 25 19 21 1 12 22 20 17 26 20 8 10 26 3 16 21 42
split_gain=974.452 100.379 90.6267 83.7017 45.9952 43.9911 40.1983 27.9129 24.9095 19.4147 16.3646 16.0477 15.6416 15.0775 14.3468 13.9105 12.4796 11.2038 11.0096 11.7628 10.8727 15.3281 10.6682 16.7872 16.799 10.5401 11.3438 11.5876 10.2058 11.2645
threshold=1.5000000000000002 796.50000000000011 1.0000000180025095e-35 1.5000000000000002 1.0000000180025095e-35 0.77919230769230785 15554.500000000002 500.50000000000006 1.5000000000000002 0.09568472579121591 2081.5000000000005 32.500000000000007 0.071824666666666662 -1.0000000180025095e-35 925.50000000000011 1.0000000180025095e-35 50.500000000000007 3672.5000000000005 0.28126762992516952 0.0032175845410627505 2999.0000000000005 16184.500000000002 0.57726500000000014 37636.500000000007 30873.500000000004 6360.5000000000009 -1.4999999999999998 399.50000000000006 -1.0000000180025095e-35 -0.025736341252923008
decision_type=2 2 2 2 2 2 2 2 2 2 2 2 2 2 2 2 2 2 2 2 2 2 2 2 2 2 2 2 2 2
left_child=1 7 3 9 8 6 10 11 14 20 25 -1 -5 -6 -4 28 -14 -11 -17 -20 21 -2 -8 24 -24 26 -3 -28 -13 -30
right_child=2 5 4 12 13 -7 22 -9 -10 17 -12 15 16 -15 -16 18 -18 -19 19 -21 -22 -23 23 -25 -26 -27 27 -29 29 -31
leaf_value=-0.0043057391814017715 0.013986018982622375 -0.031205733345098033 0.038271272103675133 0.018718487927639093 0.047797000745602163 -0.013136323434363155 -0.042043119999015527 -0.016066840162727882 0.047488923130975767 -0.016510144764367875 -0.031011779072249314 -0.01401412675906229 0.061921125180566319 0.07009939726084051 0.012594723961575037 -0.0097318048559757349 0.0098778808854688566 0.049636759444863697 0.010110058436576225 0.06083606526144484 -0.0094111861935247086 -0.022661778231919252 -0.016162263166217751 -0.035111364978098795 0.067872954242347794 -0.027286584772346918 0.010540057859241721 -0.012730067270906909 0.016686908469149529 0.057749245801263151
leaf_weight=132.73780737817287 220.38240052759647 51.460754483938217 95.230630323290825 33.461117938160896 132.65362642705441 604.504399985075 485.99108532071114 162.58224758505821 214.59913447499275 7.7283792346715918 250.93607105314732 9.5428191274404508 120.64575278759003 176.76286937296391 126.89392226934433 52.618882477283478 12.734864830970762 37.288408756256104 55.570769444108009 14.387403354048727 112.99999545514584 32.775375664234161 22.06962758302689 123.1268974840641 8.1406634747982007 121.78032912313938 78.046773999929428 170.08244940638542 28.049391999840736 41.284732013940811
leaf_count=751 1205 343 464 161 593 3931 3604 1014 915 40 1758 52 506 719 641 312 53 177 333 84 651 194 146 921 55 830 506 1124 143 208
internal_value=-0.000189226 -0.0191032 0.0342764 0.0194147 0.0457894 -0.0242958 -0.029439 0.000925548 0.0353401 0.00729456 -0.0209032 0.00919224 0.0492842 0.0605379 0.0236029 0.018086 0.0569522 0.0382808 0.00754644 0.0205422 0.003485 0.00924137 -0.0384152 -0.0269166 0.00648242 -0.0148833 -0.0098415 -0.00541066 0.0344649 0.0411373
internal_weight=3737.07 2412.91 1324.16 578.016 746.14 1916.14 1311.63 496.774 436.724 411.175 672.306 334.192 166.842 309.416 222.125 201.454 133.381 45.0168 122.577 69.9582 366.158 253.158 639.328 153.337 30.2103 421.37 299.59 248.129 78.8769 69.3341
internal_count=22434 16115 6319 2987 3332 13218 9287 2897 2020 2267 4561 1883 720 1312 1105 1132 559 217 729 417 2050 1399 4726 1122 201 2803 1973 1630 403 351
is_linear=0
shrinkage=0.05


Tree=11
num_leaves=31
num_cat=0
split_feature=24 23 15 21 20 41 9 43 23 24 21 0 26 26 0 45 19 20 1 21 15 37 0 12 16 10 24 15 26 45
split_gain=879.299 111.453 99.3665 41.4715 38.9629 37.7212 27.2565 23.2009 20.3873 16.3533 16.3225 15.0586 13.7017 18.1242 12.8944 11.8599 14.557 11.6091 11.065 10.9007 10.2179 9.35342 10.2588 9.34948 9.19695 11.7049 8.89979 8.69506 11.4527 8.69043
threshold=1.5000000000000002 2.5000000000000004 1500.5000000000002 1.0000000180025095e-35 0.8538583333333335 -0.060605339705944054 4566.5000000000009 0.075568109750747695 5.5000000000000009 -1.4999999999999998 0.86303700980392162 105000.00000000001 444.00000000000006 -11673.999999999998 65000.000000000007 -0.058459416031837456 9999.0000000000018 0.11629666666666667 55.500000000000007 0.81169163120567378 1639.5000000000002 -0.25568954646587366 215000.00000000003 1.0000000180025095e-35 1533.5000000000002 34014.500000000007 2.5000000000000004 5352.0000000000009 -1496.4999999999998 -0.099405471235513673
decision_type=2 2 2 2 2 2 2 2 2 2 2 2 2 2 2 2 2 2 2 2 2 2 2 2 2 2 2 2 2 2
left_child=2 5 3 18 6 19 27 15 -3 -5 -10 -8 13 -11 23 -7 26 -9 21 24 -6 -1 -23 -14 -2 -26 -17 28 -4 -15
right_child=1 8 4 9 20 7 11 17 10 12 -12 -13 14 29 -16 16 -18 -19 -20 -21 -22 22 -24 -25 25 -27 -28 -29 -30 -31
leaf_value=0.06078389918934516 0.040617490426087852 0.040266013887793252 -0.031373017633959936 -0.029823742060294523 0.023806622887946091 0.025756617490165019 -0.023737730818635009 -0.00063915334795735135 0.067216140084624537 -0.031372708602400962 0.039332660723332566 -0.040162897474258941 0.018769082319567833 0.030866612119732642 -0.023136116665038006 0.0040257143732726122 -0.034849014697818592 0.050973088843297758 0.083003919866750708 0.055868807416878254 -0.015369866628711643 0.00025667014534302518 0.028951302235312854 -0.010801018585681329 -0.014412709766580942 0.030570349500805324 0.046401177408021993 -0.028227126212356915 -0.00086050129550781717 0.0011993614246912014
leaf_weight=10.809985667467116 82.179066613316536 401.27482429146767 43.392147317528725 91.995756879448891 17.339808315038681 67.966150432825089 181.97396689653397 14.080493092536924 169.15523813664913 41.519705310463905 76.095062211155891 598.43513083457947 36.215976819396019 27.106849566102028 189.55083405971527 320.61011284589767 23.752847522497177 48.16013965010643 6.4736037850379935 53.529543086886406 414.63052409887314 73.928658336400986 53.827229768037796 102.07131691277027 21.805523574352264 42.936934486031532 12.88865979015827 111.15408708155155 105.58188274502754 276.24559770524502
leaf_count=55 379 1777 289 612 108 335 1291 69 701 275 318 4622 225 154 1299 1782 143 211 28 235 2720 396 269 649 109 194 66 753 699 1671
internal_value=-0.000192103 0.0323021 -0.0183939 -0.00540226 -0.0264204 0.0182935 -0.0316609 0.0107854 0.0472073 -0.0100515 0.0585646 -0.0363329 -0.00734755 -0.000390205 -0.0146664 0.00661202 0.00296981 0.039297 0.0191103 0.0365519 -0.0137973 0.0161253 0.0123465 -0.00305692 0.0295139 0.0154199 0.00566339 -0.0176442 -0.00974798 0.00385036
internal_weight=3716.69 1334.43 2382.25 909.746 1472.51 687.909 1040.54 487.458 646.525 764.706 245.25 780.409 672.71 344.872 327.838 425.218 357.252 62.2406 145.039 200.451 431.97 138.566 127.756 138.287 146.922 64.7425 333.499 260.128 148.974 303.352
internal_count=22434 6319 16115 5633 10482 3523 7654 2606 2796 4885 1019 5913 4273 2100 2173 2326 1991 280 748 917 2828 720 665 874 682 303 1848 1741 988 1825
is_linear=0
shrinkage=0.05


Tree=12
num_leaves=31
num_cat=0
split_feature=2 2 15 20 0 3 20 8 5 26 17 13 8 1 26 20 12 15 43 20 45 0 40 5 8 8 45 1 20 15
split_gain=794.354 157.06 84.6815 31.6291 31.4857 23.8062 23.7943 24.4429 22.3852 21.5339 21.6572 18.5946 15.3664 15.3273 14.2779 14.2605 12.3854 11.9129 13.6421 11.7709 11.5841 11.4317 11.0669 11.9337 17.1342 13.8476 10.6406 10.5837 10.4396 10.0274
threshold=1.0000000180025095e-35 1.5000000000000002 1600.5000000000002 0.21247357142857143 145000.00000000003 1.5000000000000002 0.8538583333333335 3740.5000000000005 1.0000000180025095e-35 444.00000000000006 2200.5000000000005 1475.0000000000002 595.50000000000011 52.500000000000007 45.500000000000007 0.94655500000000015 390.50000000000006 326.50000000000006 -0.2824233323335647 0.88711666666666678 -0.08999158069491385 55000.000000000007 0.089794814586639418 -1.4999999999999998 9407.5000000000018 4064.5000000000005 -0.063475301489233957 29.500000000000004 0.65908904761904774 2126.5000000000005
decision_type=2 2 2 2 2 2 2 2 2 2 2 2 2 2 2 2 2 2 2 2 2 2 2 2 2 2 2 2 2 2
left_child=2 3 5 11 8 9 7 26 -4 10 -1 13 -3 17 -5 16 21 18 -2 -14 -10 -11 23 -23 25 -25 -6 -7 -12 -22
right_child=1 12 4 14 6 27 -8 -9 20 15 28 -13 19 -15 -16 -17 -18 -19 -20 -21 29 22 -24 24 -26 -27 -28 -29 -30 -31
leaf_value=0.0062744356138110177 0.060699513801347506 0.0070737256461883627 -0.018158618816316887 0.040436240456676133 0.052765635313474273 0.066528886073912774 -0.010566630968912768 -0.037570776732754663 0.055737402448831512 0.017213827190453078 -0.026824461494417081 -0.013399896656860217 0.059709658196381514 0.066279463771735117 0.016547747776008065 0.0074474019652835295 -0.024301350665426876 -0.013339560410414807 0.01118518660725111 0.044500562781542241 0.047627320139340908 -0.019385358811827839 -0.037893228097369488 0.020716606157471201 -0.035412373990453237 0.11099492497949591 -0.017488842219427751 0.014702160939810513 0.028326163459605244 -0.0058553960006683279
leaf_weight=406.65869890153408 15.645655781030653 17.663207292556763 619.7006081789732 126.91380372643471 5.5995982885360709 14.434492379426954 143.36927981674671 572.0614505559206 11.698350235819815 39.032494902610779 79.849817797541618 97.299348056316376 366.98172184824944 12.773899272084234 123.33652593195438 68.586694553494453 242.06549054384232 43.174417525529861 125.47535775601864 194.71530260145664 10.269915401935576 49.269846081733704 34.30495922267437 16.160447433590896 9.6839758902788144 5.7621779441833487 143.72829222679138 31.021062240004539 9.6138256043195707 59.766897514462471
leaf_count=2399 77 79 4250 572 36 69 946 4413 55 237 522 552 1491 61 594 418 1611 246 660 801 52 335 232 102 66 37 991 153 55 322
internal_value=-0.000194106 0.0348718 -0.0155143 0.0155943 -0.0227862 -0.00419805 -0.029171 -0.0328685 -0.0149147 -0.00587051 0.00137456 0.0044844 0.0529933 0.0133144 0.0286627 -0.0136027 -0.017246 0.00964333 0.0166747 0.0544373 0.00968011 -0.00617137 -0.0140961 -0.0040022 0.0199778 0.0444455 -0.0148544 0.0311598 -0.0208979 0.00198709
internal_weight=3696.62 1123.98 2572.64 544.619 1566.19 1006.44 864.759 721.389 701.436 960.988 496.122 294.369 579.36 197.069 250.25 464.866 396.279 184.295 141.121 561.697 81.7352 154.214 115.181 80.8764 31.6066 21.9226 149.328 45.4556 89.4636 70.0368
internal_count=22434 5133 17301 2762 11065 6236 6386 5440 4679 6014 2976 1596 2371 1044 1166 3038 2620 983 737 2292 429 1009 772 540 205 139 1027 222 577 374
is_linear=0
shrinkage=0.05


Tree=13
num_leaves=31
num_cat=0
split_feature=24 23 15 25 20 21 9 23 14 24 0 21 22 8 0 45 12 34 1 0 15 14 0 39 0 32 25 26 35 14
split_gain=727.908 89.0491 86.1127 67.0879 35.9722 34.698 26.0114 17.0488 15.7423 15.1632 14.5123 14.4293 13.4177 11.7184 16.9553 10.5759 13.3599 10.146 9.05527 9.04259 9.03201 12.4619 8.822 10.1051 9.2853 9.42726 8.76834 11.0371 10.9899 9.57018
threshold=1.5000000000000002 2.5000000000000004 1500.5000000000002 1.5000000000000002 0.8538583333333335 1.0000000180025095e-35 4566.5000000000009 5.5000000000000009 1.0000000180025095e-35 -1.4999999999999998 65000.000000000007 0.86303700980392162 0.48982962194403318 8181.0000000000009 65000.000000000007 0.11274405568838121 1015.5000000000001 0.25423423945903784 53.500000000000007 205000.00000000003 1639.5000000000002 2069.0000000000005 215000.00000000003 -0.28293225169181818 205000.00000000003 -0.17260196059942243 -1.4999999999999998 -3411.4999999999995 -0.08711757510900496 1400.5000000000002
decision_type=2 2 2 2 2 2 2 2 2 2 2 2 2 2 2 2 2 2 2 2 2 2 2 2 2 2 2 2 2 2
left_child=2 3 5 8 6 18 -4 26 17 -7 -8 -9 -5 15 -15 16 22 -2 -1 -10 21 -6 23 -11 25 -25 28 -28 29 -3
right_child=1 7 4 12 20 9 10 11 19 13 -12 -13 -14 14 -16 -17 -18 -19 -20 -21 -22 -23 -24 24 -26 -27 27 -29 -30 -31
leaf_value=0.013940118082850263 0.026666889409303441 0.07609087766438391 -0.016147052293495882 0.043660428222706299 -0.0071859181193287399 -0.028662972432509311 -0.01653164375006947 0.060672589063173521 0.0038671011161392982 0.073919072197669675 -0.037361694752682924 0.034613663034107803 0.010425267079643539 -0.0034638160018803143 -0.028230693251668489 -0.025744155853945419 -0.010177522441315399 -0.018350048600321637 0.064860519254016133 -0.017324386663217967 -0.01411025513553494 0.082287769980587094 -0.0064320332739881613 0.035866216308596058 0.065400917780064058 0.0031627966532966883 0.053588479308634911 0.033576531497750951 -0.0075952696177198024 0.021115460846693787
leaf_weight=137.67378254234791 103.88253372907639 10.496796593070028 253.78194233775139 195.47060553729534 11.717422217130663 89.826514303684235 95.972947046160698 171.0282120257616 281.37446321547031 7.2471575289964667 649.49330001324415 77.055563613772392 35.954226732254028 153.85289020836353 125.45158411562443 39.293119326233864 142.08531278371811 14.231112644076346 9.3220484256744367 61.307998195290565 406.63760893046856 5.8269392400979987 59.813305601477623 28.02904237806797 8.0740297585725767 103.06803353130817 95.834072902798653 245.14937694370747 24.110148966312408 32.201730087399483
leaf_count=707 516 47 1741 807 73 612 680 701 1572 43 5233 318 170 976 901 247 923 75 41 383 2720 35 365 165 47 606 404 1058 115 153
internal_value=-0.00019461 0.0290413 -0.0171306 0.0165326 -0.0247944 -0.00505978 -0.0299731 0.0422432 0.00550148 -0.00937776 -0.03468 0.0525786 0.038497 -0.00678024 -0.014588 -0.00115408 0.00161989 0.021243 0.0171693 7.58137e-05 -0.0125948 0.0225306 0.00974783 0.0163575 0.01336 0.0101549 0.0359556 0.0392009 0.0193918 0.0346303
internal_weight=3675.26 1348.1 2327.17 692.221 1423.43 903.737 999.248 655.876 460.796 756.741 745.466 248.084 231.425 666.914 279.304 387.61 348.317 118.114 146.996 342.682 424.182 17.5444 206.232 146.418 139.171 131.097 407.792 340.983 66.8087 42.6985
internal_count=22434 6319 16115 3523 10482 5633 7654 2796 2546 4885 5913 1019 977 4273 1877 2396 2149 591 748 1955 2828 108 1226 861 818 771 1777 1462 315 200
is_linear=0
shrinkage=0.05


Tree=14
num_leaves=31
num_cat=0
split_feature=24 2 15 20 21 23 8 0 14 22 14 20 14 32 20 43 41 5 8 17 4 36 17 39 15 13 0 17 37 19
split_gain=658.164 169.793 80.2863 34.1344 31.3289 26.7785 22.3666 14.2233 13.9253 13.5504 13.063 12.2055 11.7626 11.1744 10.9457 9.83949 9.80933 9.69998 9.62763 14.3998 9.32645 12.4168 12.0482 9.23559 9.23503 13.0536 11.2839 10.1601 9.19196 9.41036
threshold=1.5000000000000002 1.5000000000000002 1500.5000000000002 0.8538583333333335 1.0000000180025095e-35 2.5000000000000004 8414.0000000000018 215000.00000000003 4026.5000000000005 0.25566933788362184 6.5000000000000009 0.53100416666666683 1600.5000000000002 0.12055180966854097 0.64143167701863368 -0.29320235550403589 -0.23946799337863919 1.0000000180025095e-35 17334.000000000004 1999.5000000000002 -1.4999999999999998 -0.14445135742425916 390.50000000000006 0.034272462129592902 7648.5000000000009 139286.00000000003 75000.000000000015 5082.5000000000009 -0.09479098021984099 1007.5000000000001
decision_type=2 2 2 2 2 2 2 2 2 2 2 2 2 2 2 2 2 2 2 2 2 2 2 2 2 2 2 2 2 2
left_child=2 5 4 6 -1 10 8 12 13 14 28 -8 20 -4 17 -14 -16 -3 19 -12 -6 -22 -23 -24 25 26 -7 -28 29 -2
right_child=1 9 3 -5 7 24 11 -9 -10 -11 18 -13 15 -15 16 -17 -18 -19 -20 -21 21 22 23 -25 -26 -27 27 -29 -30 -31
leaf_value=0.016193013198298977 0.022301103971040737 0.046142227819957582 -0.0037539372143023234 -0.01206636707956274 -0.012424633515679944 0.031837960410469067 -0.039447937126833921 -0.020272005152326408 -0.032312683227610987 0.023177323217022219 0.017756730010228094 -0.024951001537088756 0.055731741677429149 -0.029155708625783618 0.062858701593350372 -0.017980847654668983 0.040142306552863327 0.067786292495327985 -0.0081155824477721437 -0.018519847381634983 -0.021724123980591103 0.023176767024690459 -0.0074181805978460486 0.021389817427654081 -0.0096121194966579324 0.085569344667887723 0.01596815663269853 -0.037411981516445723 0.026626630033333893 -0.023520909514263746
leaf_weight=148.03134617209435 22.090707346796989 87.855593293905258 153.33290309458971 420.7735098451376 107.95276311039925 172.14649949967861 426.45461344718933 203.20115664601326 118.2352906987071 51.053636029362679 112.16789917647839 220.14156610518694 4.6580190211534491 60.329088605940342 58.097350478172302 161.19302675127983 261.08931931853294 126.00979501008987 188.61715614795685 36.178794011473656 37.734043806791306 93.089951738715172 106.56838074326515 37.650701433420181 19.272070348262787 8.9544525593519193 85.297373324632645 9.9543930739164335 92.918902456760406 22.737184211611748
leaf_count=748 109 354 1057 2828 690 754 3506 1369 926 222 609 1746 30 419 234 1081 1056 505 1113 214 237 558 679 241 92 40 395 47 455 120
internal_value=-0.000194753 0.0274548 -0.0164818 -0.0239752 -0.00483257 0.0120394 -0.0290963 -0.0089712 -0.018545 0.0477851 0.00468272 -0.0345123 -0.00478727 -0.0109263 0.0501419 -0.0159106 0.0442771 0.0588949 -0.00062033 0.0089096 2.95295e-05 0.00491771 0.00915398 0.000102609 0.0238525 0.0261863 0.0241977 0.0103896 0.0176553 -0.000940309
internal_weight=3653.79 1354.44 2299.35 1399.27 900.079 770.335 978.493 752.048 331.897 584.106 474.711 646.596 548.847 213.662 533.052 165.851 319.187 213.865 336.964 148.347 382.996 275.043 237.309 144.219 295.625 276.353 267.398 95.2518 137.747 44.8279
internal_count=22434 6319 16115 10482 5633 3948 7654 4885 2402 2371 2620 5252 3516 1476 2149 1111 1290 859 1936 823 2405 1715 1478 920 1328 1236 1196 442 684 229
is_linear=0
shrinkage=0.05


Tree=15
num_leaves=31
num_cat=0
split_feature=24 2 16 21 10 23 26 0 32 36 15 8 14 0 25 0 44 1 19 40 8 9 32 19 15 10 21 42 35 9
split_gain=595.688 153.16 75.7972 33.1771 32.1718 24.1969 24.0306 16.6173 14.5475 14.063 13.2967 12.961 12.0456 11.8154 10.9818 10.4715 10.452 9.79364 10.9878 14.5354 9.79227 9.74114 11.2632 16.7384 10.0119 12.7023 9.56933 9.9618 10.9008 9.34164
threshold=1.5000000000000002 1.5000000000000002 666.50000000000011 0.55373738095238101 12468.500000000002 3.5000000000000004 3978.5000000000005 175000.00000000003 0.15951151400804522 -0.18246660381555554 1639.5000000000002 595.50000000000011 1568.5000000000002 145000.00000000003 1.5000000000000002 65000.000000000007 0.14044477045536044 40.500000000000007 433.50000000000006 0.045508360490202911 7037.5000000000009 270953.50000000006 -0.20459847152233121 7990.5000000000009 4998.0000000000009 129696.50000000001 0.041541023809523805 -0.014605060219764708 -0.13216155022382733 4775.5000000000009
decision_type=2 2 2 2 2 2 2 2 2 2 2 2 2 2 2 2 2 2 2 2 2 2 2 2 2 2 2 2 2 2
left_child=2 5 6 4 13 7 8 12 17 -5 -11 -3 -2 -4 -13 -8 -9 18 19 -1 -15 24 23 -23 25 -12 27 -19 -29 -14
right_child=1 11 3 9 -6 -7 15 16 -10 10 21 14 29 20 -16 -17 -18 26 -20 -21 -22 22 -24 -25 -26 -27 -28 28 -30 -31
leaf_value=0.018709540671372378 0.019572454092985088 0.0034530896462512794 -0.0072238842853220887 0.051822574952154747 -0.035960971300489121 0.027432716097710683 -0.0019525389851433681 -0.012380974197208317 -0.017974980176101076 0.0052564510939386785 -0.013989510553073708 0.055423062028431669 0.04618447768580463 -0.018019393201898215 0.04112268970070565 -0.027402622854725663 0.030412153851071124 0.007250687639114 -0.011148718568734001 -0.0091907744662779577 -0.036705596003295468 0.12464575521858452 -0.012041189518191546 0.0074330712286896569 -0.027234715294345624 0.054462730096641793 -0.019230978394877127 0.0033192825881101146 0.050967673969466235 0.00059954007335515449
leaf_weight=135.5450077354908 223.17432282865047 17.941693127155304 165.15384750813246 8.429878354072569 515.85683459043503 180.26908187568188 65.068177968263626 134.48864221572876 65.575459644198418 83.392600104212761 259.65398293733597 218.00659854710102 11.882966652512549 236.69427585601807 349.44453990459442 106.68590944260359 15.962591156363485 47.433393590152264 99.106548622250557 71.204918541014194 99.617551751434803 4.3265317603945723 27.936227172613144 10.289544224739073 189.50972855836153 6.958758868277072 14.234048262238501 16.547330245375633 43.71059238910675 207.3258880674839
leaf_count=774 1089 79 1114 58 4234 786 422 787 405 525 1835 876 63 1660 1416 791 80 271 647 409 790 31 199 72 1390 49 96 95 248 1143
internal_value=-0.000193772 0.0260004 -0.0158496 -0.0217223 -0.0271943 0.0113915 -0.00165333 0.00651368 0.00395427 -0.0122949 -0.0132235 0.0452938 0.0113955 -0.018176 0.0466167 -0.017761 -0.0078407 0.00731585 0.00253925 0.00910064 -0.0235544 -0.0163138 0.0065656 0.0421294 -0.0184483 -0.0122029 0.0192982 0.0243908 0.037883 0.00307063
internal_weight=3631.43 1358.5 2272.93 1607.82 1017.32 773.103 665.111 592.834 493.357 590.497 582.067 585.393 442.383 501.466 567.451 171.754 150.451 427.782 305.856 206.75 336.312 498.675 42.5523 14.6161 456.122 266.613 121.925 107.691 60.2579 219.209
internal_count=22434 6319 16115 11957 7798 3948 4158 3162 2945 4159 4101 2371 2295 3564 2292 1213 867 2540 1830 1183 2450 3576 302 103 3274 1884 710 614 343 1206
is_linear=0
shrinkage=0.05


Tree=16
num_leaves=31
num_cat=0
split_feature=24 2 15 20 21 9 3 24 0 4 26 26 21 15 0 26 19 14 9 12 20 23 41 0 21 21 1 10 33 21
split_gain=539.315 138.421 70.522 31.5813 26.3013 23.5263 22.0017 13.9315 13.4777 12.3169 10.4175 15.1886 10.2999 10.2578 9.89767 9.78624 8.43719 10.0128 9.82737 8.2942 11.5248 8.13737 9.62168 8.01948 7.98243 8.29556 7.95132 8.83779 9.81444 7.93664
threshold=1.5000000000000002 1.5000000000000002 1500.5000000000002 0.8538583333333335 1.0000000180025095e-35 4939.5000000000009 1.0000000180025095e-35 -1.4999999999999998 105000.00000000001 -1.0000000180025095e-35 444.00000000000006 -10590.999999999998 0.66530360983102932 11944.500000000002 65000.000000000007 575.50000000000011 780.50000000000011 1959.5000000000002 40947.500000000007 1015.5000000000001 0.0074604347826086508 1.5000000000000002 0.023961815983057026 215000.00000000003 0.0036341269841269502 0.0028350320512820003 28.500000000000004 2842.5000000000005 -0.18772513419389722 0.024464723320158054
decision_type=2 2 2 2 2 2 2 2 2 2 2 2 2 2 2 2 2 2 2 2 2 2 2 2 2 2 2 2 2 2
left_child=2 6 4 5 23 24 13 -6 -7 19 11 -9 -11 21 29 -8 17 -17 -18 20 -3 -2 -23 -1 25 -4 -24 -28 -29 -12
right_child=1 9 3 -5 7 8 15 10 -10 12 14 -13 -14 -15 -16 16 18 -19 -20 -21 -22 22 26 -25 -26 -27 27 28 -30 -31
leaf_value=0.0047492907910232215 -0.0017117274796265897 -0.0056837507378008356 -0.0063621106270663266 -0.010907470415135311 -0.027000224080755419 -0.0198803692723254 0.026950194942322349 -0.028056965260583641 -0.036260756408653713 0.052136734621083126 0.049800275042457161 0.0042840505862058861 0.038446532151642204 -0.03922981677146177 -0.019984578269188848 0.017531669925696453 -0.018073738631758412 0.081726749524963838 0.014397885135401392 -0.022951471177773509 0.066082524841515486 0.0034834053908667029 0.002626175072880042 0.028137267285861214 -0.016744215816984442 0.071563925917333002 7.4122181346258166e-05 0.016544196392361911 0.077454274089163402 -0.0049038357566800299
leaf_weight=85.237571015954018 233.45770661532879 11.05879293382168 9.7964393943548185 413.46785831451416 86.807981960475445 165.50824339687824 202.28599391877651 41.304448194801807 520.47646381705999 254.50301811099052 6.9880100488662711 299.8509915471077 298.56746250391006 14.114424496889113 178.67838981747627 70.154092788696289 39.988935589790344 6.6500229239463797 55.834078505635262 10.670258611440657 11.320734992623327 96.371230587363243 18.651875734329224 64.302449554204941 240.45837184786797 5.2430720478296271 9.3207719326019269 10.199416622519491 18.810266226530079 129.54603646695614
leaf_count=440 1352 49 62 2828 612 1273 903 287 4564 1027 40 1813 1201 85 1299 324 194 30 270 47 47 497 96 308 1721 34 48 56 93 834
internal_value=-0.00019296 0.0246352 -0.0152374 -0.0224263 -0.00432624 -0.027485 0.0107805 -0.00817601 -0.0323086 0.0429744 -0.00568642 0.000368452 0.0447463 0.00263822 -0.0122396 0.0194877 0.0107431 0.0230899 0.000846802 0.0133238 0.0306194 0.00416595 0.0131138 0.0148062 -0.014534 0.0208045 0.0294012 0.0424302 0.0560391 -0.002104
internal_weight=3609.63 1361.96 2247.67 1354.95 892.716 941.483 775.839 743.176 685.985 586.12 656.368 341.155 553.07 400.926 315.212 374.913 172.627 76.8041 95.823 33.0498 22.3795 386.811 153.354 149.54 255.498 15.0395 56.9823 38.3305 29.0097 136.534
internal_count=22434 6319 16115 10482 5633 7654 3948 4885 5837 2371 4273 2100 2228 2227 2173 1721 818 354 464 143 96 2142 790 748 1817 96 293 197 149 874
is_linear=0
shrinkage=0.05


Tree=17
num_leaves=31
num_cat=0
split_feature=24 16 23 25 0 9 26 9 32 23 8 19 15 14 10 32 19 18 40 1 16 22 17 0 0 17 17 14 22 22
split_gain=488.405 66.6639 60.7482 42.5528 29.9848 21.0328 20.9274 16.1779 13.8523 12.9099 12.15 11.974 11.3835 10.9441 10.8755 10.6088 12.5061 10.501 9.80406 9.98111 9.64788 9.6434 9.4166 10.8996 9.09792 8.65854 8.68591 8.33844 8.70039 8.32642
threshold=1.5000000000000002 666.50000000000011 2.5000000000000004 1.5000000000000002 145000.00000000003 270953.50000000006 6699.5000000000009 4159.0000000000009 0.15951151400804522 5.5000000000000009 131386.50000000003 9999.0000000000018 4998.0000000000009 6.5000000000000009 116446.50000000001 -0.20459847152233121 7990.5000000000009 21323.000000000004 0.026970840990543369 37.500000000000007 7000.5000000000009 0.48982962194403318 1.0000000180025095e-35 45000.000000000007 65000.000000000007 253.00000000000003 432.50000000000006 4902.5000000000009 0.040221896254198912 0.049672431497045207
decision_type=2 2 2 2 2 2 2 2 2 2 2 2 2 2 2 2 2 2 2 2 2 2 2 2 2 2 2 2 2 2
left_child=1 6 3 11 12 7 8 -6 18 -4 -9 13 14 -2 29 16 -7 21 22 -20 -11 -5 23 -1 -8 -24 -27 -12 -29 -3
right_child=2 4 9 17 5 15 24 10 -10 20 27 -13 -14 -15 -16 -17 -18 -19 19 -21 -22 -23 25 -25 -26 26 -28 28 -30 -31
leaf_value=0.071509553885577712 0.019374344838965656 -0.017621156204680508 0.028781834311612405 0.036668919378115256 -0.017399855870590245 0.10707830229794282 -0.0029410133854490673 -0.038152804707199402 -0.017708008703286409 0.045779391907035338 0.014185841167904042 -0.025564802014191403 -0.027144125876653297 0.0015646793201654745 0.054155848083526893 -0.010741352200718354 0.0096014846663462841 -0.026718383565080606 -0.0088232015346186646 0.012224442414010103 0.0060427321639524734 0.0077248430042770825 -0.039814226968331347 0.018730572531048061 -0.028636390086508524 0.034858172035225531 -0.0020900581218025465 -0.014039695183567992 -0.037026081704444054 -0.0056775485803532743
leaf_weight=10.723505616188048 118.90080273151398 253.08085692673922 415.95442035794258 193.39371377229691 228.50208027660847 4.7498672157526007 57.784548461437225 386.44438835978508 67.899687752127647 232.86476521193981 14.330709062516688 31.310380786657333 115.84026686102152 314.22198724746704 6.5274462997913352 32.592377468943596 10.709391251206396 7.7786680608987799 142.69451847672462 93.060611985623837 16.347641631960869 33.808046743273735 10.827298842370508 111.41779836267233 85.301958538591862 21.708726428449154 59.509993754327297 82.002885848283768 82.66328851133585 344.64087535440922
leaf_count=57 576 1801 1777 787 1616 32 377 3420 428 952 113 191 873 1779 45 242 76 34 877 546 67 156 69 617 662 129 396 642 667 2430
internal_value=-0.000190931 -0.0146449 0.0233558 0.0130677 -0.020277 -0.0266833 -0.00133364 -0.0286274 0.00334319 0.0341736 -0.0331646 0.00429521 -0.0127862 0.00645379 -0.0100336 0.00543889 0.0395513 0.0304062 0.00651997 -0.000514977 0.0431728 0.032362 0.0142633 0.0233644 -0.0182595 0.00218659 0.00778573 -0.0223954 -0.025579 -0.0107346
internal_weight=3587.59 2223.01 1364.58 699.414 1562.08 841.995 660.929 793.943 517.842 665.167 565.441 464.433 720.089 433.123 604.249 48.0516 15.4593 234.98 449.942 235.755 249.212 227.202 214.187 122.141 143.087 92.046 81.2187 178.997 164.666 597.722
internal_count=22434 16115 6319 3523 11957 6808 4158 6458 3119 2796 4842 2546 5149 2355 4276 350 108 977 2691 1423 1019 943 1268 674 1039 594 525 1422 1309 4231
is_linear=0
shrinkage=0.05


Tree=18
num_leaves=31
num_cat=1
split_feature=23 2 14 20 23 19 16 21 8 0 0 12 43 26 9 22 10 25 10 36 17 21 16 32 9 22 20 12 19 27
split_gain=442.174 144.797 40.6427 31.6179 19.4342 17.0383 16.113 15.4932 17.9514 15.3584 14.7392 14.572 13.2158 13.1529 12.3014 11.3963 11.3626 11.0505 10.8265 10.3211 9.86951 9.92984 10.1179 9.18192 16.7052 9.3167 9.95901 9.47302 15.473 9.6023
threshold=1.0000000180025095e-35 1.5000000000000002 2999.5000000000005 0.98299375000000011 3.5000000000000004 9999.0000000000018 630.50000000000011 0.55373738095238101 8414.0000000000018 45000.000000000007 25000.000000000004 273.00000000000006 0.0037958268076181416 51735.500000000007 8268.5000000000018 -0.60573080054165263 75595.500000000015 1.5000000000000002 -42.499999999999993 -0.14071239531040189 799.50000000000011 0.55373738095238101 206.50000000000003 0.12796453386545184 38191.000000000007 0.087159492248988377 1.0169953125000002 28881.000000000004 1795.5000000000002 0
decision_type=2 2 2 2 2 2 2 2 2 2 2 2 2 2 2 2 2 2 2 2 2 2 2 2 2 2 2 2 2 1
left_child=2 4 6 9 5 10 19 8 14 -4 11 -2 -9 -5 -8 -12 23 -3 -11 -1 -17 22 -22 25 -25 26 27 28 29 -14
right_child=1 17 3 13 -6 -7 7 12 -10 18 15 -13 16 -15 -16 20 -18 -19 -20 -21 21 -23 -24 24 -26 -27 -28 -29 -30 -31
leaf_value=-0.021279729964169544 0.070181983113633647 0.048004618835474008 0.011068212590785872 -0.016107932884380428 0.022589129666528585 -0.024393040622403453 -0.011055477064374118 -0.025710324961067524 -0.028845444012293442 0.046225745442938643 -0.023724496610724399 0.016394253812771882 -0.0088379350425963829 0.016919498689404896 0.071938240586923607 0.011516439623828256 0.076413374043617144 0.033833028881461454 -0.029640145848294882 0.0018031435639652882 0.0083616822312110074 0.0090491023090160851 -0.01692413158579199 0.098074537424605215 -0.0062939347461805047 -0.028313004154582679 -0.042685965019005019 -0.0089864773096464037 0.086001329338764698 0.032117914151691927
leaf_weight=56.531282939016819 14.882829129695891 220.72365517914295 24.537578463554382 62.936437219381332 184.27874484658241 47.654390648007393 232.21553751826286 51.221986845135689 240.94638580828905 4.7332666590809813 35.613744728267193 81.804451137781143 29.539119824767113 57.856481522321701 4.5523564517498007 322.09230504930019 5.1382427811622611 365.08158847689629 725.43375764042139 337.79576681554317 58.758294329047203 141.29073618352413 121.0945633649826 6.5840510725975028 9.1792423054575902 28.983187809586525 10.834983840584753 49.661309123039246 7.8155673295259467 27.761761739850044
leaf_count=389 70 894 176 437 787 292 1616 353 1948 36 214 403 198 396 34 1667 38 1477 6114 2148 327 755 696 44 64 197 73 354 53 184
internal_value=-0.00018919 0.0194055 -0.0160026 -0.0240394 0.00791168 0.004626 -0.00959885 -0.014129 -0.0192374 -0.0278408 0.00640913 0.0246737 -0.00336538 -0.000288703 -0.00945975 0.00380775 0.00315638 0.0391727 -0.0291483 -0.00150605 0.00533212 -0.000870476 -0.0086632 0.000946854 0.0372989 -0.00275977 0.00313624 0.00746185 0.0200062 0.0110048
internal_weight=3567.53 1593.28 1974.26 875.498 1007.47 823.191 1098.76 704.434 477.714 754.705 775.537 96.6873 226.719 120.793 236.768 678.85 175.497 585.805 730.167 394.327 643.236 321.144 179.853 170.359 15.7633 154.596 125.613 114.778 65.1164 57.3009
internal_count=22434 7582 14852 7159 5211 4424 7693 5156 3598 6326 4132 473 1558 833 1650 3659 1205 2371 6150 2537 3445 1778 1023 1167 108 1059 862 789 435 382
cat_boundaries=0 1
cat_threshold=2
is_linear=0
shrinkage=0.05


Tree=19
num_leaves=31
num_cat=0
split_feature=24 2 15 20 9 21 3 24 22 20 20 19 36 11 15 5 8 13 13 1 9 15 14 15 19 13 32 16 33 1
split_gain=401.522 107.597 58.4164 28.5076 21.2457 20.2913 16.3955 13.2574 10.9255 10.3131 9.90284 9.87077 9.62644 14.3937 9.17318 8.82712 11.8225 8.3003 10.191 8.07374 7.85146 7.83521 10.6689 7.73115 8.68284 13.5401 12.9407 8.71791 7.69209 7.65533
threshold=1.5000000000000002 1.5000000000000002 1500.5000000000002 0.8538583333333335 4939.5000000000009 1.0000000180025095e-35 1.0000000180025095e-35 -1.4999999999999998 0.25566933788362184 0.53100416666666683 0.88711666666666678 1000.5000000000001 -0.082161225378513322 836.50000000000011 11944.500000000002 -1.0000000180025095e-35 529.00000000000011 40592.000000000007 19079.000000000004 33.500000000000007 18620.500000000004 1639.5000000000002 2069.0000000000005 2000.5000000000002 999.50000000000011 29821.500000000004 0.11592623218894006 528.50000000000011 -0.25999733805656428 55.500000000000007
decision_type=2 2 2 2 2 2 2 2 2 2 2 2 2 2 2 2 2 2 2 2 2 2 2 2 2 2 2 2 2 2
left_child=2 6 5 4 -4 29 14 -7 10 -6 -3 -11 -9 15 28 16 -14 18 20 -10 -12 22 -5 24 -8 27 -27 -26 -2 -1
right_child=1 8 3 21 9 7 23 12 19 11 17 -13 13 -15 -16 -17 -18 -19 -20 -21 -22 -23 -24 -25 25 26 -28 -29 -30 -31
leaf_value=0.010619873269459866 0.05997374108779973 0.04451571412157973 -0.012838355286746955 -0.00483917134543305 -0.034318186311355879 -0.025679649952432715 0.030619173109149769 -0.014489162300084011 -0.0034476738280078616 0.00095809269053895568 -0.0053812518266507557 -0.026333827642178793 0.021104450527008347 -0.0076817623189036873 -0.038205260185085042 0.048746612951223414 -0.0058548035684459643 0.040071038648753644 0.0056365527274863918 0.03578617618448527 0.052270946779163052 -0.01072231565296599 0.07763177022654931 0.0075375813161476712 0.029476523148400914 0.053479143983036007 -0.017632277013702995 -0.012867691627039386 0.0024372498516541875 0.064796443316164229
leaf_weight=144.5390437245369 5.898335024714469 340.77773539721966 248.3721294850111 11.362158656120302 442.87277285754681 84.457458600401878 130.33964049816132 178.5948510915041 27.158044621348381 41.79355051368475 7.4870829582214347 159.82387080043554 78.589878782629967 290.78204042464495 13.777445569634436 13.840694978833197 84.273718625307083 102.06104309856892 54.390838950872421 25.354796722531319 27.956830307841301 385.82918813824654 5.9883586615324012 150.3049446195364 16.151382297277451 26.362584084272385 8.4477241039276105 49.128682389855385 383.30660375952721 6.8285544514656058
leaf_count=720 27 1380 1817 73 4096 612 574 1192 116 332 30 1409 442 1989 85 86 564 409 218 106 112 2720 35 693 72 118 38 226 2115 28
internal_value=-0.000187431 0.0210323 -0.0135247 -0.0202795 -0.0252626 -0.00359779 0.00891932 -0.0070501 0.0372548 -0.0300506 0.0393999 -0.0206764 -0.00461479 -0.000842466 0.00188988 0.0104122 0.00715439 0.0303149 0.0192311 0.0154956 0.0400926 -0.00924421 0.0236249 0.0163595 0.0221139 0.0110381 0.0362219 -0.00239102 0.00330921 0.0130639
internal_weight=3546.85 1368.9 2177.95 1296.04 892.862 881.906 783.717 730.539 585.186 644.49 532.674 201.617 646.081 467.486 402.982 176.704 162.864 191.896 89.8348 52.5128 35.4439 403.18 17.3505 380.735 230.43 100.09 34.8103 65.2801 389.205 151.368
internal_count=22434 6319 16115 10482 7654 5633 3948 4885 2371 5837 2149 1741 4273 3081 2227 1092 1006 769 360 222 142 2828 108 1721 1028 454 156 298 2142 748
is_linear=0
shrinkage=0.05


Tree=20
num_leaves=31
num_cat=1
split_feature=24 2 14 20 3 17 8 20 26 45 26 28 8 21 20 17 15 6 10 1 14 22 26 21 18 45 15 26 22 10
split_gain=364.497 118.976 36.3006 28.9688 16.9755 12.9156 12.4973 25.1767 11.8724 11.3817 13.4918 10.7088 10.6725 9.62787 9.51291 9.43192 12.3946 12.0329 9.1531 9.09034 9.04467 9.58119 14.2781 9.34918 9.01374 9.58417 9.44404 9.08038 8.95468 8.90993
threshold=1.0000000180025095e-35 1.5000000000000002 2999.5000000000005 0.98299375000000011 1.5000000000000002 295.50000000000006 8414.0000000000018 0.58564666666666676 51735.500000000007 0.05956611409783364 22444.000000000004 0 595.50000000000011 0.61829750000000006 0.64143167701863368 2007.5000000000002 6500.5000000000009 -1.4999999999999998 77965.000000000015 24.500000000000004 5023.5000000000009 0.061697717851972055 -149.49999999999997 0.40320657276995303 713.50000000000011 0.21097888797521594 2014.5000000000002 -3411.4999999999995 0.080022662573061162 -42.499999999999993
decision_type=2 2 2 2 2 2 2 2 2 2 2 1 2 2 2 2 2 2 2 2 2 2 2 2 2 2 2 2 2 2
left_child=2 4 6 29 5 9 15 -8 -5 10 -2 18 -3 20 28 16 17 -1 -9 -15 21 -7 23 -23 26 -26 -6 -28 -14 -4
right_child=1 12 3 8 24 13 7 11 -10 -11 -12 -13 14 19 -16 -17 -18 -19 -20 -21 -22 22 -24 -25 25 -27 27 -29 -30 -31
leaf_value=-0.0076290003779591643 0.017743216508812033 -0.0021273321109577647 0.040219855766252255 -0.015041557815284035 0.032632829091739222 -0.022901712306017341 -0.025517381151115966 -0.00042256616993961873 0.016428597097275399 -0.0092295785075391101 -0.037765247981811578 -0.021472035506326828 0.051270125323692642 -0.022418502224750954 0.031221899987272241 -0.016597524300495284 -0.035633420255554174 0.0098739032881883827 0.070970950049255521 0.013770530398719231 -0.029859503686393125 0.0070913227878803501 -0.021085772603584015 0.052474892889304459 0.0063068112424854404 0.044814312354624124 0.053157632083179099 -0.0065754431891497976 0.030548583894691436 -0.0267683994607637
leaf_weight=175.15838085114956 217.41766200214624 18.282666385173798 4.9981874004006377 61.84297488629818 109.56453716754913 53.840068027377129 255.17856964468956 237.73017412424088 58.149308487772942 61.818132244050503 11.52730157971382 59.022030144929886 156.81007628142834 21.251036033034325 330.712721824646 105.36059984564781 22.912681445479393 223.47979448735714 4.5758373588323584 94.593930467963219 48.017230212688446 65.110207729041576 42.014720633625984 13.743192180991171 213.33607995510101 17.482800215482712 7.8367247134447089 33.816386505961418 78.106100291013718 722.125169724226
leaf_count=1103 1117 79 37 437 480 318 2122 1653 396 328 70 413 641 115 1331 776 170 1423 33 532 318 380 241 73 976 77 34 152 320 6289
internal_value=-0.000184088 0.017501 -0.014798 -0.0225518 0.00712573 0.00207866 -0.0087354 -0.0139607 0.000209154 0.00980799 0.0149484 -0.00417402 0.0354716 -0.00455926 0.0366869 -0.00321657 0.000127807 0.00218327 0.000888979 0.00713188 -0.0106401 -0.00535781 0.00245703 0.0150011 0.0154398 0.00922347 0.0249285 0.00466289 0.0443805 -0.0263079
internal_weight=3525.82 1595.28 1930.53 847.116 1011.37 629.333 1083.42 556.507 119.992 290.763 228.945 301.328 583.912 338.57 565.629 526.911 421.551 398.638 242.306 115.845 222.725 174.708 120.868 78.8534 382.037 230.819 151.218 41.6531 234.916 727.123
internal_count=22434 7582 14852 7159 5211 3492 7693 4221 833 1515 1187 2099 2371 1977 2292 3472 2696 2526 1686 647 1330 1012 694 453 1719 1053 666 186 961 6326
cat_boundaries=0 1
cat_threshold=6
is_linear=0
shrinkage=0.05


Tree=21
num_leaves=31
num_cat=1
split_feature=24 2 17 20 11 0 8 20 25 22 22 10 10 8 14 11 1 19 29 1 22 41 8 10 33 18 20 45 20 20
split_gain=330.808 108.125 34.2899 28.6957 16.6315 16.4739 12.5979 12.6724 10.1247 9.74833 9.9973 12.4179 18.8656 10.2743 9.25374 14.9627 10.2252 10.2518 8.98538 9.1212 10.8382 9.23871 8.66763 9.96114 9.01566 8.34379 14.2651 8.27351 8.17994 8.04671
threshold=1.0000000180025095e-35 1.5000000000000002 1500.5000000000002 0.77919230769230785 8457.0000000000018 125000.00000000001 6590.5000000000009 0.58564666666666676 1.5000000000000002 -1.0000000180025095e-35 0.039396617389476557 165937.00000000003 207038.00000000003 9407.5000000000018 4421.5000000000009 48925.500000000007 33.500000000000007 2196.5000000000005 0 50.500000000000007 0.53319275355605378 -0.27426101267337794 25657.500000000004 29353.000000000004 0.14710588753223422 500.50000000000006 0.14629678030303025 0.19222451746463778 0.32006666666666672 0.98299375000000011
decision_type=2 2 2 2 2 2 2 2 2 2 2 2 2 2 2 2 2 2 1 2 2 2 2 2 2 2 2 2 2 2
left_child=2 5 6 4 -4 14 25 -8 -3 -7 11 -11 -13 -12 22 -16 17 -17 -10 20 21 -20 -2 -24 -25 26 -1 -15 -23 -5
right_child=1 8 3 29 -6 9 7 -9 18 10 13 12 -14 27 15 16 -18 -19 19 -21 -22 28 23 24 -26 -27 -28 -29 -30 -31
leaf_value=0.0023647351827298158 0.018763663392786727 0.042332942105434312 -0.016141243800979876 -0.015022646195461684 -0.032992207113314513 -0.026012664193382346 -0.021285101009215057 -0.0055019882100996592 0.036992982289740337 0.0064937714397208263 0.0051186922777558073 0.11903344411499082 0.010475805605315663 -0.018714585462943158 -0.025732397422081568 0.046833427388157628 0.055024867583746785 -0.035343303975008303 0.061416257007786593 -0.021515686817499362 -0.01393426874701631 0.052840728893481251 -0.020807569562971702 0.014935784287377641 -0.026095576553798735 -0.0099498441373896702 0.072678251849201597 0.044518701810186967 0.01893953212807881 0.0010959045481052103
leaf_weight=258.75468070805073 355.96708869934082 217.35007138550282 227.11537929624319 200.04277465492487 412.15041467547417 35.338850222527981 235.31103316694498 276.757603533566 172.43165272474289 125.58411200344563 123.96732619404793 6.4924043416976955 10.433851480484007 108.25631840527058 38.625903531908989 6.0569598376751008 12.870672471821306 10.164031207561491 18.356124252080917 11.694781944155691 17.016667947173119 20.752692818641663 30.490277767181396 128.52572885155678 14.944341227412222 166.34292972832918 7.4202291816472998 5.4325392916798583 124.78228281438351 126.32576328516006
leaf_count=1628 1706 894 1819 1505 3930 217 1959 1927 698 619 709 32 54 626 216 32 68 53 74 47 73 84 150 619 84 1159 48 26 501 877
internal_value=-0.000184072 0.0166216 -0.0142212 -0.0208468 -0.0270055 0.00675317 -0.00744796 -0.0127548 0.0337893 -0.000893367 0.00144163 0.0119123 0.0521153 -0.00483712 0.0120693 -0.00533528 0.0217466 -0.0046583 0.0287022 0.0212797 0.0240463 0.0279897 0.0142934 0.00514613 0.0106618 -0.00116506 0.00432488 -0.015693 0.0237737 -0.00878372
internal_weight=3505.76 1595.53 1910.22 965.634 639.266 1013.15 944.586 512.069 582.384 415.505 380.167 142.51 16.9263 237.656 597.645 67.7176 29.0917 16.221 365.034 192.603 180.908 163.891 529.927 173.96 143.47 432.518 266.175 113.689 145.535 326.369
internal_count=22434 7582 14852 8131 5749 5211 6721 3886 2371 2283 2066 705 86 1361 2928 369 153 85 1477 779 732 659 2559 853 703 2835 1676 652 585 2382
cat_boundaries=0 1
cat_threshold=1
is_linear=0
shrinkage=0.05


Tree=22
num_leaves=31
num_cat=0
split_feature=24 2 14 20 16 38 0 0 32 8 0 44 18 31 8 4 40 12 0 42 12 19 12 26 23 44 9 38 20 41
split_gain=300.183 80.6257 48.5016 25.5118 25.1076 14.7249 12.7734 12.5594 12.5372 12.2155 11.1438 9.89914 9.89786 10.9607 11.3165 9.87806 9.25676 10.4173 11.1282 8.88045 8.79627 13.19 8.72033 10.8607 8.96629 9.49892 9.28922 8.47263 8.33687 8.69939
threshold=1.5000000000000002 1.5000000000000002 2999.5000000000005 0.95471333333333341 583.50000000000011 0.049668878316879279 135000.00000000003 45000.000000000007 0.12055099382996561 2401.5000000000005 295000.00000000006 0.090312696993350997 8502.0000000000018 0.2484996169805527 176250.50000000003 -1.0000000180025095e-35 0.026970840990543369 687.50000000000011 65000.000000000007 0.0030117938295006756 218239.50000000003 7001.5000000000009 2501.5000000000005 -2231.4999999999995 1.5000000000000002 -0.0085315364412963373 1475.5000000000002 0.20734822750091556 0.66673000000000016 -0.23946799337863919
decision_type=2 2 2 2 2 2 2 2 2 2 2 2 2 2 2 2 2 2 2 2 2 2 2 2 2 2 2 2 2 2
left_child=2 5 4 7 8 10 -6 -4 16 19 12 20 13 14 22 -3 17 18 -1 -8 -9 -22 24 -24 25 -2 -26 -23 -17 -30
right_child=1 15 3 -5 6 -7 9 11 -10 -11 -12 -13 -14 -15 -16 28 -18 -19 -20 -21 21 27 23 -25 26 -27 -28 -29 29 -31
leaf_value=0.049536472576377132 0.015188791670532534 0.0059170390328614139 0.008625644735498518 -0.004722517276781777 -0.0064899954725837136 -0.0015357019618711253 0.0021045269322938309 -0.03007317237856108 -0.011438585031599419 -0.029186384641080178 -0.014530218482986116 -0.0040809494068278903 -0.019010084986820761 0.028375608114463303 0.07931784997200482 0.041035494090835657 -4.4848810641611842e-05 -0.0072587748756426781 0.014456820821748557 -0.024944795661452881 0.093780406759289447 -0.028399908044533892 0.016946306507887032 -0.0035280176827801068 -0.016025283759746763 0.085600522057342088 0.036301444763740101 0.057273547212480125 0.046162286934885707 0.024629519234394298
leaf_weight=28.244124531745911 8.4033782333135623 33.665385380387306 25.501172229647636 183.41507305204868 443.29727045446634 280.77727112174034 77.708720818161964 572.51023053377867 125.12446649372578 160.60550483316183 34.907382920384407 43.32972939312458 20.764790087938309 132.66250032186508 5.9967521578073493 231.21800690889359 229.55274438858032 40.653601668775082 113.28378688544035 49.781777933239937 3.2946742549538639 17.129207544028763 123.20107697695494 136.57049766182899 15.347772553563116 11.139078587293623 18.958141893148422 3.4704744070768347 57.311092153191566 258.36003255844116
leaf_count=157 44 143 187 1299 3197 1514 539 5283 787 1408 188 371 104 588 31 954 1409 276 647 342 29 154 596 671 71 55 86 30 232 1042
internal_value=-0.000180428 0.0180624 -0.0119805 -0.0212325 -0.0057895 0.00765316 -0.0118168 -0.0257845 0.00242187 -0.0200133 0.0127324 -0.0271562 0.0147442 0.0162939 0.0112792 0.0322041 0.00663401 0.0150495 0.0214575 -0.00845754 -0.0288326 0.000890351 0.00997827 0.00618228 0.0282906 0.055323 0.0128915 -0.0139663 0.0338223 0.0285389
internal_weight=3486.19 1369.28 2116.9 848.651 1268.25 788.729 731.393 665.235 536.859 288.096 507.951 639.734 473.044 452.279 319.617 580.555 411.734 182.182 141.528 127.49 596.405 23.8944 313.62 259.772 53.8484 19.5425 34.3059 20.5997 546.889 315.671
internal_count=22434 6319 16115 7353 8762 3948 5486 6054 3276 2289 2434 5867 2246 2142 1554 2371 2489 1080 804 881 5496 213 1523 1267 256 99 157 184 2228 1274
is_linear=0
shrinkage=0.05


Tree=23
num_leaves=31
num_cat=1
split_feature=23 2 17 20 11 23 0 8 20 3 8 7 4 16 21 36 1 34 17 16 28 34 20 2 9 0 39 8 34 16
split_gain=273.03 89.2669 30.1295 26.28 15.9236 14.2969 11.7508 11.1867 11.3546 9.69485 9.43068 9.35793 8.84224 8.81238 11.2801 9.7775 8.86449 11.6796 9.65765 8.57992 8.56185 8.81805 8.51277 8.11122 11.003 13.967 11.7197 8.63968 8.04519 8.60913
threshold=1.0000000180025095e-35 1.5000000000000002 1500.5000000000002 0.77919230769230785 8457.0000000000018 3.5000000000000004 25000.000000000004 6590.5000000000009 0.58564666666666676 2.5000000000000004 595.50000000000011 -1.4999999999999998 1.0000000180025095e-35 732.00000000000011 0.56013615319865329 -0.34084396064281458 52.500000000000007 -0.12659660726785657 124.50000000000001 399.50000000000006 0 0.49472476541996008 0.88711666666666678 -1.4999999999999998 1.0000000180025095e-35 355000.00000000006 0.0063855405896902093 5974.5000000000009 0.095423229038715376 2136.5000000000005
decision_type=2 2 2 2 2 2 2 2 2 2 2 2 2 2 2 2 2 2 2 2 1 2 2 2 2 2 2 2 2 2
left_child=2 5 7 4 -4 6 11 23 -9 13 -3 -2 -7 16 -15 -16 17 19 -18 -8 28 -22 -12 24 25 -1 -27 -25 29 -10
right_child=1 10 3 -5 -6 12 9 8 20 -11 22 -13 -14 14 15 -17 18 -19 -20 -21 21 -23 -24 27 -26 26 -28 -29 -30 -31
leaf_value=-0.0081325064069523566 0.057907852598214696 -0.004532201594782459 -0.014784818144220634 -0.0078804940897879341 -0.031537447427720189 0.060020016792024393 0.016597482350877203 -0.020043898386484512 -0.010816508272854823 0.047183326313127896 0.036440380370640173 0.013272995526839582 0.015735103791325315 -0.012001708772704407 0.05091669208062382 0.0020047936781464586 0.067189834308152716 -0.0012976879697673698 0.0020556296306674772 0.080409343079045625 -0.018755243558831351 0.04511288858982028 0.023566423596304314 0.002530989737347378 -0.025998254847469607 0.010523835004725287 0.098460874329067125 0.050047373679284295 0.01885331037268069 0.031130041709862818
leaf_weight=72.580800294876099 13.565493762493132 18.387235388159752 221.53883065283298 321.81410979479551 394.31321672350168 12.047844648361204 67.085622221231461 229.31391713023186 88.99701514840126 11.221745997667311 360.82977503538132 87.396017104387283 174.97628125548363 225.42366365343332 10.96964545547962 148.98849877715111 12.032942473888399 236.23670206218958 10.79809810221195 5.7165697664022437 112.40232231467962 5.6773298457264891 199.34673473238945 268.16208804398775 63.612645983695984 10.204762041568758 6.0264485925436011 9.9203530773520452 53.422571070492268 14.181448884308336
leaf_count=428 61 79 1819 2382 3930 50 357 1959 618 50 1491 422 737 1309 49 796 54 1237 59 30 794 40 801 1773 473 57 34 70 374 101
internal_value=-0.00017703 0.0150241 -0.0131279 -0.0194601 -0.0255111 0.00610002 0.00328421 -0.00677414 -0.0118302 0.00106865 0.0307025 0.0192703 0.0185879 0.000347165 -0.00479587 0.00535908 0.00631948 0.00409837 0.0363842 0.0216081 -0.004973 -0.0144598 0.031859 -0.000855075 -0.0101251 0.00124419 0.0431738 0.0042261 0.0029173 -0.00505113
internal_weight=3467.19 1595.02 1872.17 937.666 615.852 1016.46 829.435 934.502 503.995 728.473 578.564 100.962 187.024 717.252 385.382 159.958 331.87 309.039 22.831 72.8022 274.681 118.08 560.177 430.507 152.425 88.812 16.2312 278.082 156.601 103.178
internal_count=22434 7582 14852 8131 5749 5211 4424 6721 3886 3941 2371 483 787 3891 2154 845 1737 1624 113 387 1927 834 2292 2835 992 519 91 1843 1093 719
cat_boundaries=0 1
cat_threshold=2
is_linear=0
shrinkage=0.05


Tree=24
num_leaves=31
num_cat=0
split_feature=23 2 14 20 0 0 16 21 43 12 26 10 25 10 36 15 15 26 32 41 10 20 16 22 22 10 10 20 4 14
split_gain=247.75 81.2367 29.3095 23.7869 13.7193 13.1197 11.003 12.0747 12.2927 11.9061 10.8347 9.48591 9.36745 9.29685 8.83641 8.71079 9.30198 8.68485 8.65168 8.56555 9.34467 16.1643 10.3786 8.48254 8.46378 10.2465 16.267 9.0203 8.43518 13.1728
threshold=1.0000000180025095e-35 1.5000000000000002 2999.5000000000005 0.98299375000000011 45000.000000000007 125000.00000000001 630.50000000000011 0.55373738095238101 0.0037958268076181416 24379.500000000004 51735.500000000007 75595.500000000015 1.5000000000000002 -42.499999999999993 -0.14071239531040189 2563.5000000000005 4212.0000000000009 1365.5000000000002 0.081294417381286635 0.022702366113662723 12468.500000000002 0.040938690476190455 1985.5000000000002 -1.0000000180025095e-35 0.039396617389476557 165937.00000000003 201112.00000000003 0.014891176470588201 -1.4999999999999998 74.000000000000014
decision_type=2 2 2 2 2 2 2 2 2 2 2 2 2 2 2 2 2 2 2 2 2 2 2 2 2 2 2 2 2 2
left_child=2 5 6 4 15 -2 14 9 -9 17 -5 -10 -3 -6 -1 -4 -17 19 -12 -8 21 -21 -23 -7 25 -25 -27 -26 29 -16
right_child=1 12 3 10 13 23 7 8 11 -11 18 -13 -14 -15 28 16 -18 -19 -20 20 -22 22 -24 24 27 26 -28 -29 -30 -31
leaf_value=-0.019134189663771325 0.01049668511119555 0.037599086324455071 -0.012466170311176942 -0.013988956041950541 0.044558869692508926 -0.024764763661398442 -0.013974875519277544 -0.023527879339966581 0.0027412712206593593 -0.031269086465043852 0.031547180290614818 0.070409242849903839 0.024395768882195926 -0.025309125838067954 0.0017060888637326788 0.10509866304517053 0.0083979882781067428 -0.020402035507785118 -0.0079625371012203416 0.0039387329355870969 -0.028810561633680173 0.033362319987652329 0.13057120170110917 0.0057149363349111798 0.0070002927185559881 0.11305230641834425 0.011481544814495606 -0.012840295051613854 0.0095699921255558984 -0.034264496436269387
leaf_weight=54.3571482822299 602.66463199257851 213.16745394468307 13.505617469549181 60.784177631139755 4.7963359951972953 34.58285991102457 108.24028056114912 49.075847595930099 166.37408139556646 96.827728472650051 35.626326650381088 5.3454823568463317 363.26324956119061 650.57180177420378 112.02350147813559 4.2637569084763509 5.9675104916095734 152.94428492337465 22.674393326044083 61.74448749423027 15.147739127278326 7.9107104390859586 4.205505259335041 126.11491884291172 97.084303200244904 6.0273609608411816 11.393084421753882 139.74670498818159 188.80170180648565 32.934896022081375
leaf_count=389 2928 894 95 437 36 217 794 353 1167 914 241 38 1477 6114 682 33 48 1248 155 433 124 53 32 619 560 28 58 801 1227 239
internal_value=-0.000173363 0.0142811 -0.0126003 -0.0198308 -0.0234453 0.00578582 -0.00713468 -0.0110257 -0.00145928 -0.0157508 0.000781436 0.00484772 0.0292784 -0.0247978 -0.000439622 0.0138968 0.0486968 -0.01146 0.016181 -0.0045264 0.00696358 0.0143003 0.0671033 -0.00105616 0.00109943 0.01068 0.0466244 -0.00470703 0.00260503 -0.00646651
internal_weight=3448.17 1594.04 1854.12 798.19 679.105 1017.61 1055.93 667.816 220.795 447.021 119.085 171.72 576.431 655.368 388.117 23.7369 10.2313 350.193 58.3007 197.249 89.0084 73.8607 12.1162 414.949 380.366 143.535 17.4204 236.831 333.76 144.958
internal_count=22434 7582 14852 7159 6326 5211 7693 5156 1558 3598 833 1205 2371 6150 2537 176 81 2684 396 1436 642 518 85 2283 2066 705 86 1361 2148 921
is_linear=0
shrinkage=0.05


Tree=25
num_leaves=31
num_cat=0
split_feature=2 2 15 20 10 26 17 20 23 22 42 8 44 7 35 22 0 1 43 16 8 16 11 22 46 42 1 17 16 45
split_gain=225.016 45.6703 39.5406 23.069 19.2768 18.7562 17.3872 11.876 10.4814 10.4172 9.90571 9.49392 9.33895 8.99747 8.98337 8.8706 8.85579 9.0143 10.683 8.84991 8.79287 8.76346 9.23032 9.28716 8.52385 8.44023 23.8762 8.63384 10.0171 8.86243
threshold=1.0000000180025095e-35 1.5000000000000002 2000.5000000000002 0.63166666666666682 10855.500000000002 444.00000000000006 2007.5000000000002 -3.535714285714285e-05 1.0000000180025095e-35 0.034491943410169902 -0.043727133423089974 1052.0000000000002 0.13167987763881686 1.0000000180025095e-35 0.010292973369359972 0.25566933788362184 25000.000000000004 41.500000000000007 -0.12254712730646132 389.50000000000006 325.50000000000006 1169.5000000000002 30393.500000000004 0.035518713322160257 0.052317228168249137 0.042681317776441581 36.500000000000007 11008.500000000002 15002.000000000002 -1.0000000180025095e-35
decision_type=2 2 2 2 2 2 2 2 2 2 2 2 2 2 2 2 2 2 2 2 2 2 2 2 2 2 2 2 2 2
left_child=2 7 5 4 11 6 8 12 -1 -5 -10 20 -2 16 21 -3 19 -18 -19 -9 -4 -15 -23 -24 -6 27 -27 -11 29 -29
right_child=1 15 3 9 24 -7 -8 13 10 25 -12 -13 -14 14 -16 -17 17 18 -20 -21 -22 22 23 -25 -26 26 -28 28 -30 -31
leaf_value=0.0031596936331891529 -0.034089780574387628 0.029912648500544183 -0.017356954579110118 0.010948708245879015 -0.031499469895754563 -0.0092488067019243798 -0.014296924569406648 0.046976025430484881 0.070137644655952139 -0.014357113648698037 0.015995293280037005 -0.016024407073360152 0.021871313886190086 -0.00029175655576281267 0.053847660862588013 0.0085144602101086472 -0.0010459552328038865 -0.011233452532496671 0.027226067756751338 0.006657361047366599 0.026832761616125512 0.056071496126562252 0.052306056252529598 -0.0081968855080447739 -0.005822104988320074 -0.016129875285951983 0.10684779929612503 0.048730997075853447 -0.033237283937790983 -0.01039523390474912
leaf_weight=359.64041550457478 27.824136555194855 520.86054962873459 18.787789866328239 64.033484920859337 353.02848567813635 571.12511424720287 112.50240584462881 25.181734576821327 9.1023896783590299 378.8890099003911 117.49925597012043 188.5335458368063 10.184068061411379 43.51364341378212 18.924101009964943 53.398007735610008 267.56669519841671 24.558946572244167 68.191849440336227 29.618558540940285 28.084854766726494 20.552491903305054 9.543778061866762 18.90973387658596 35.577433668076992 12.539856284856798 5.7597015276551238 16.918673969805241 9.4405681714415532 10.133833952248098
leaf_count=2355 170 2149 140 481 3455 4082 794 109 41 2879 592 1582 59 181 79 222 1366 126 337 131 207 85 40 79 308 75 37 122 73 78
internal_value=-0.000170397 0.0179949 -0.00919779 -0.0159051 -0.0223088 -0.00276651 0.00341677 0.00789649 0.0075152 -0.00787636 0.019888 -0.0110177 -0.0190953 0.00984481 0.0224591 0.0279229 0.00645834 0.00361029 0.0170426 0.0251845 0.00912036 0.0160389 0.0305392 0.0120968 -0.0291487 -0.0106559 0.0225768 -0.01212 0.0111074 0.0265824
internal_weight=3430.43 1138.83 2291.6 1121.73 624.012 1169.87 598.744 564.57 486.242 497.715 126.602 235.406 38.0082 526.562 111.444 574.259 415.118 360.317 92.7508 54.8003 46.8726 92.5196 49.006 28.4535 388.606 433.682 18.2996 415.382 36.4931 27.0525
internal_count=22434 5133 17301 9437 5692 7864 3782 2762 2988 3745 633 1929 229 2533 464 2371 2069 1829 463 240 347 385 204 119 3763 3264 112 3152 273 200
is_linear=0
shrinkage=0.05


Tree=26
num_leaves=31
num_cat=0
split_feature=24 2 14 8 13 3 17 10 46 15 45 26 26 21 18 11 26 25 32 22 17 21 13 16 44 22 10 21 22 15
split_gain=206.906 66.3332 26.2859 18.3604 14.5402 10.8589 10.0565 9.98627 10.5637 9.81481 9.71835 11.0349 9.24065 10.0912 17.1212 11.8875 10.4309 8.80554 8.40231 8.18627 10.7529 7.84147 7.79122 9.6928 7.91015 7.74157 8.49958 13.3198 9.33468 8.4975
threshold=1.0000000180025095e-35 1.5000000000000002 4902.5000000000009 278318.50000000006 41326.500000000007 1.5000000000000002 295.50000000000006 116446.50000000001 -0.00010839290916919707 5199.0000000000009 0.05956611409783364 22444.000000000004 444.00000000000006 0.7560366666666668 1661.5000000000002 29295.500000000004 22991.000000000004 1.5000000000000002 0.065517056733369841 0.040221896254198912 499.50000000000006 0.99711568627450997 999.50000000000011 913.50000000000011 -0.0048635234124958506 0.14691571881928736 9037.0000000000018 0.065003205128205108 2.8023901806701654 198.50000000000003
decision_type=2 2 2 2 2 2 2 2 2 2 2 2 2 2 2 2 2 2 2 2 2 2 2 2 2 2 2 2 2 2
left_child=2 5 4 19 9 6 10 21 -9 12 11 25 -1 -14 -15 -16 -17 22 -5 -4 -21 -6 -3 -24 -25 -2 27 28 29 -27
right_child=1 17 3 18 7 -7 -8 8 -10 -11 -12 -13 13 14 15 16 -18 -19 -20 20 -22 -23 23 24 -26 26 -28 -29 -30 -31
leaf_value=0.0013839409123339861 0.0097713965971726324 -0.01405712846174394 -0.012187559482555121 0.024945873058555407 -0.024881164924553612 0.011948312425170906 -0.004572744282769158 -0.018431008230001992 0.069140602266400022 -0.020437140154851277 -0.0095391732751811797 -0.035944199358774721 -0.01092813934002016 -0.0037102048673496348 0.002957851860372944 0.14905405313108652 0.04207564455048679 0.021909518300973374 -0.018841840535316498 -0.0064510694938135493 -0.031255137989366306 0.022681677532612157 0.051884650030533955 0.013313192617987607 0.038382115622349444 0.062643886976614965 -0.016659057131766939 0.09993192357838418 -0.021456519658106542 0.011272203460901881
leaf_weight=438.23727336525917 165.06504718959332 7.8616918623447409 109.7593540251255 29.445606783032417 189.62444117665291 387.54740472137928 337.46285023540258 7.6243755370378494 6.2804646641015989 100.49007448554039 61.801012605428696 11.068597942590712 481.65702363848686 55.23295770585537 6.295717626810073 4.2892904877662641 4.8608473539352417 361.79393397271633 17.446825295686722 50.825313575565815 311.39547993987799 9.0806435048580152 69.01949442923069 50.93859700858593 82.318145960569382 17.906239464879036 7.9237671718001357 7.6060220599174491 7.7675804495811454 14.62400947511196
leaf_count=2954 824 33 949 221 1744 1719 1977 69 55 846 328 70 3764 383 44 30 34 1477 140 464 3089 66 296 215 350 88 44 38 43 80
internal_value=-0.000166492 0.0130105 -0.0116673 -0.0211853 -0.00787904 0.00536029 0.00131551 -0.019841 0.0211229 -0.00554807 0.0080797 0.0127739 -0.00403763 -0.00833924 0.00930343 0.055839 0.0922237 0.0266377 0.00865419 -0.0241499 -0.0277747 -0.0227076 0.0347783 0.0366763 0.0287993 0.0152151 0.0313103 0.0392449 0.0277905 0.0395497
internal_weight=3413.25 1590.7 1822.55 518.873 1303.67 1018.77 631.225 212.61 13.9048 1091.06 293.762 231.961 990.573 552.336 70.6788 15.4459 9.15014 571.932 46.8924 471.98 362.221 198.705 210.138 202.276 133.257 220.893 55.8276 47.9039 40.2978 32.5302
internal_count=22434 7582 14852 4863 9989 5211 3492 1934 124 8055 1515 1187 7209 4255 491 108 64 2371 361 4502 3553 1810 894 861 565 1117 293 249 211 168
is_linear=0
shrinkage=0.05


Tree=27
num_leaves=31
num_cat=1
split_feature=23 23 14 20 22 13 25 19 21 12 31 19 10 44 17 43 20 39 1 22 16 29 1 17 21 20 43 16 33 20
split_gain=187.696 39.9025 24.509 22.0185 14.2149 13.473 11.9536 10.5525 10.0725 9.40528 12.6502 11.3359 9.14619 8.89668 8.84116 8.79393 8.74677 10.527 8.67715 8.78768 10.2808 8.4451 8.37004 8.04372 7.78056 7.6707 7.39418 8.65092 10.1499 7.29814
threshold=1.0000000180025095e-35 2.5000000000000004 4902.5000000000009 0.98299375000000011 -0.25059658377292132 41326.500000000007 1.5000000000000002 9999.0000000000018 0.40979901960784321 218239.50000000003 -0.62195998430252064 8606.5000000000018 116446.50000000001 -0.013198709115386007 499.50000000000006 -0.0086777573451399786 0.045354687500000011 0.018261251971125606 49.500000000000007 0.034491943410169902 3800.5000000000005 0 35.500000000000007 12924.500000000002 0.019185590858416906 1.019641666666667 0.22784371674060824 149.50000000000003 -0.041944162920117371 0.35886000000000007
decision_type=2 2 2 2 2 2 2 2 2 2 2 2 2 2 2 2 2 2 2 2 2 1 2 2 2 2 2 2 2 2
left_child=2 4 5 9 -2 21 7 -6 26 14 -11 -12 -7 -14 15 16 17 -4 19 20 -5 -1 -23 -21 -17 -22 27 28 -8 -18
right_child=1 -3 3 18 6 12 8 -9 -10 10 11 -13 13 -15 -16 24 29 -19 -20 23 25 22 -24 -25 -26 -27 -28 -29 -30 -31
leaf_value=-0.00041686263265691589 -0.020871846441086271 0.021780246589709857 0.12128732646199086 -0.028025686551444225 0.0037523006011675529 -0.021951133596023804 0.026348101109632278 -0.026310900094252156 0.024022720705947298 0.067472646669945846 0.038017433110752584 -0.036703573168654489 0.079393261285082159 -0.0066785758147216746 -0.029914973874848368 0.019910310667242633 -0.048763942187444738 0.0072406451158842288 0.054040520393722861 -0.017527815495254579 0.10835931444212901 -0.012727993048994361 0.00085843299818576897 0.042763708279588836 -0.034486807576651533 0.019306338879064099 -0.014461342244576132 -0.002814901177151143 -0.0021690703228997347 0.028100286186742929
leaf_weight=488.51255069673061 47.746711038053036 659.22026452422142 3.6107372939586657 4.6051767617464057 447.18281246721745 195.37695533037186 104.5063603669405 31.227733604609966 144.98577941954136 5.9505513608455685 7.2950264066457775 16.686087772250175 4.3304184004664412 9.7885923609137517 344.18513048440218 8.3418663367629033 5.99787989258766 4.6026065871119499 7.8560144305229178 48.134863778948784 4.719407767057417 446.33003957569599 151.95217237621546 6.2503710091114035 31.009736075997353 4.9590127617120743 33.217662215232849 76.909050039947033 44.484236359596252 6.3658163323998451
leaf_count=3613 290 2797 30 32 2415 1810 500 202 592 50 65 151 35 89 3506 72 57 41 55 346 32 3336 1106 42 297 33 165 395 226 54
internal_value=-0.000162783 0.0123694 -0.0111872 -0.0204661 0.00570047 -0.00753257 0.00713811 0.00178996 0.0134697 -0.0248259 0.00221834 -0.0139735 -0.0191427 0.0197204 -0.026829 -0.0091054 0.0173817 0.0573777 0.00426269 -0.00143211 0.0334698 -0.00529455 -0.0092773 -0.0105986 -0.0229555 0.0627305 0.00756488 0.0108038 0.0178337 -0.00918811
internal_weight=3396.34 1589.48 1806.86 510.57 930.26 1296.29 882.514 478.411 404.103 434.045 29.9317 23.9811 209.496 14.119 404.114 59.9286 20.577 8.21334 76.5248 68.6688 14.2836 1086.79 598.282 54.3852 39.3516 9.67842 259.117 225.9 148.991 12.3637
internal_count=22434 7582 14852 4863 4785 9989 4495 2617 1878 4323 266 216 1934 124 4057 551 182 71 540 485 97 8055 4442 388 369 65 1286 1121 726 111
cat_boundaries=0 1
cat_threshold=1
is_linear=0
shrinkage=0.05


Tree=28
num_leaves=31
